/*
 * Copyright (c) 2024 EdgeImpulse Inc.
 *
 * Generated by Edge Impulse and licensed under the applicable Edge Impulse
 * Terms of Service. Community and Professional Terms of Service
 * (https://docs.edgeimpulse.com/page/terms-of-service) or Enterprise Terms of
 * Service (https://docs.edgeimpulse.com/page/enterprise-terms-of-service),
 * according to your product plan subscription (the “License”).
 *
 * This software, documentation and other associated files (collectively referred
 * to as the “Software”) is a single SDK variation generated by the Edge Impulse
 * platform and requires an active paid Edge Impulse subscription to use this
 * Software for any purpose.
 *
 * You may NOT use this Software unless you have an active Edge Impulse subscription
 * that meets the eligibility requirements for the applicable License, subject to
 * your full and continued compliance with the terms and conditions of the License,
 * including without limitation any usage restrictions under the applicable License.
 *
 * If you do not have an active Edge Impulse product plan subscription, or if use
 * of this Software exceeds the usage limitations of your Edge Impulse product plan
 * subscription, you are not permitted to use this Software and must immediately
 * delete and erase all copies of this Software within your control or possession.
 * Edge Impulse reserves all rights and remedies available to enforce its rights.
 *
 * Unless required by applicable law or agreed to in writing, the Software is
 * distributed on an "AS IS" BASIS, WITHOUT WARRANTIES OR CONDITIONS OF ANY KIND,
 * either express or implied. See the License for the specific language governing
 * permissions, disclaimers and limitations under the License.
 */
// Generated on: 27.06.2024 04:09:45

#include <stdio.h>
#include <stdlib.h>
#include "edge-impulse-sdk/tensorflow/lite/c/builtin_op_data.h"
#include "edge-impulse-sdk/tensorflow/lite/c/common.h"
#include "edge-impulse-sdk/tensorflow/lite/micro/micro_mutable_op_resolver.h"
#include "edge-impulse-sdk/porting/ei_classifier_porting.h"

#if EI_CLASSIFIER_PRINT_STATE
#if defined(__cplusplus) && EI_C_LINKAGE == 1
extern "C" {
    extern void ei_printf(const char *format, ...);
}
#else
extern void ei_printf(const char *format, ...);
#endif
#endif

#if defined __GNUC__
#define ALIGN(X) __attribute__((aligned(X)))
#elif defined _MSC_VER
#define ALIGN(X) __declspec(align(X))
#elif defined __TASKING__
#define ALIGN(X) __align(X)
#elif defined __ICCARM__
#define ALIGN(x) __attribute__((aligned(x)))
#endif

#ifndef EI_MAX_SCRATCH_BUFFER_COUNT
#ifndef CONFIG_IDF_TARGET_ESP32S3
#define EI_MAX_SCRATCH_BUFFER_COUNT 4
#else
#define EI_MAX_SCRATCH_BUFFER_COUNT 4
#endif // CONFIG_IDF_TARGET_ESP32S3
#endif // EI_MAX_SCRATCH_BUFFER_COUNT

#ifndef EI_MAX_OVERFLOW_BUFFER_COUNT
#define EI_MAX_OVERFLOW_BUFFER_COUNT 10
#endif // EI_MAX_OVERFLOW_BUFFER_COUNT

using namespace tflite;
using namespace tflite::ops;
using namespace tflite::ops::micro;

namespace {

#if defined(EI_CLASSIFIER_ALLOCATION_STATIC_HIMAX) || defined(EI_CLASSIFIER_ALLOCATION_STATIC_HIMAX_GNU)
constexpr int kTensorArenaSize = 229456;
#else
constexpr int kTensorArenaSize = 228432;
#endif

#if defined(EI_CLASSIFIER_ALLOCATION_STATIC)
uint8_t tensor_arena[kTensorArenaSize] ALIGN(16);
#elif defined(EI_CLASSIFIER_ALLOCATION_STATIC_HIMAX)
#pragma Bss(".tensor_arena")
uint8_t tensor_arena[kTensorArenaSize] ALIGN(16);
#pragma Bss()
#elif defined(EI_CLASSIFIER_ALLOCATION_STATIC_HIMAX_GNU)
uint8_t tensor_arena[kTensorArenaSize] ALIGN(16) __attribute__((section(".tensor_arena")));
#else
#define EI_CLASSIFIER_ALLOCATION_HEAP 1
uint8_t* tensor_arena = NULL;
#endif

static uint8_t* tensor_boundary;
static uint8_t* current_location;

template <int SZ, class T> struct TfArray {
  int sz; T elem[SZ];
};

enum used_operators_e {
  OP_CONV_2D, OP_DEPTHWISE_CONV_2D, OP_PAD, OP_MEAN, OP_FULLY_CONNECTED, OP_SOFTMAX,  OP_LAST
};

struct TensorInfo_t { // subset of TfLiteTensor used for initialization from constant memory
  TfLiteAllocationType allocation_type;
  TfLiteType type;
  void* data;
  TfLiteIntArray* dims;
  size_t bytes;
};

typedef struct {
  TfLiteTensor tensor;
  int16_t index;
} TfLiteTensorWithIndex;

typedef struct {
  TfLiteEvalTensor tensor;
  int16_t index;
} TfLiteEvalTensorWithIndex;

TfLiteContext ctx{};
static const int MAX_TFL_TENSOR_COUNT = 4;
static TfLiteTensorWithIndex tflTensors[MAX_TFL_TENSOR_COUNT];
static const int MAX_TFL_EVAL_COUNT = 4;
static TfLiteEvalTensorWithIndex tflEvalTensors[MAX_TFL_EVAL_COUNT];
TfLiteRegistration registrations[OP_LAST];

namespace g0 {
const TfArray<4, int> tensor_dimension0 = { 4, { 1,96,96,3 } };
const ALIGN(16) float tensor_data1[6] = { 2.2852342128753662, 1.3971078395843506, 1.4809049367904663, 2.4311575889587402, 2.7424290180206299, 1.3317614793777466, };
const TfArray<1, int> tensor_dimension1 = { 1, { 6 } };
const ALIGN(16) float tensor_data2[6] = { 4.2528791427612305, -0.15526667237281799, 2.8863694667816162, 1.4182918071746826, 2.1621484756469727, 2.4309685230255127, };
const TfArray<1, int> tensor_dimension2 = { 1, { 6 } };
const ALIGN(16) float tensor_data3[12] = { 3.3975558280944824, -2.5082190036773682, 7.8022499084472656, 4.8373508453369141, 3.4349503517150879, -9.0500707626342773, 6.0864148139953613, -2.3502433300018311, 3.4850001335144043, 3.9639863967895508, -4.7429895401000977, -0.37824025750160217, };
const TfArray<1, int> tensor_dimension3 = { 1, { 12 } };
const ALIGN(16) float tensor_data4[12] = { 3.1206097602844238, 0.10622125864028931, 4.4112815856933594, 0.062587499618530273, 0.20666897296905518, -0.026767909526824951, 3.4393470287322998, 4.3002982139587402, 0.1141006201505661, -8.8065910339355469, 0.079707026481628418, 4.1049976348876953, };
const TfArray<1, int> tensor_dimension4 = { 1, { 12 } };
const ALIGN(16) float tensor_data5[25] = { 0.72320681810379028, 3.6167287826538086, 1.2972356081008911, 3.8767743110656738, 1.2134225368499756, 1.9964988231658936, -3.4318063259124756, 2.451904296875, -0.054680585861206055, -6.7143077850341797, 1.3790363073348999, -6.6239442825317383, 2.5188682079315186, 0.1802520751953125, 0.95811730623245239, -2.7441627979278564, -0.55196970701217651, 1.3115952014923096, -2.1565041542053223, 2.2476587295532227, 4.1339526176452637, 1.488735556602478, 3.3192751407623291, 4.8966407775878906, -0.066153883934020996, };
const TfArray<1, int> tensor_dimension5 = { 1, { 25 } };
const ALIGN(16) float tensor_data6[25] = { -0.70100617408752441, 4.1278963088989258, 1.4710427522659302, -0.0030599832534790039, 1.6294844150543213, 0.039865225553512573, -0.097280442714691162, 0.16109549999237061, -2.1320102214813232, 3.3071892261505127, 0.015332922339439392, 1.1844547986984253, 1.9933080673217773, 3.0811958312988281, -6.1771659851074219, 2.6736822128295898, -0.034131236374378204, 1.3881092071533203, -1.4559745788574219, 1.6841921806335449, 1.7075188159942627, -0.4506908655166626, -0.79541075229644775, 1.6586649417877197, 0.047403693199157715, };
const TfArray<1, int> tensor_dimension6 = { 1, { 25 } };
const ALIGN(16) float tensor_data7[25] = { -4.5672917366027832, -1.1732654571533203, -1.4398097991943359, 1.7668843269348145, 0.3676903247833252, 5.650238037109375, 0.76974928379058838, 2.68929123878479, -1.8207559585571289, -2.29750657081604, 4.4666314125061035, 0.4801408052444458, 1.9501923322677612, 1.5652389526367188, -2.9626686573028564, 3.347836971282959, -2.8702704906463623, -6.1577572822570801, 3.1820755004882812, -4.3313188552856445, -0.36869841814041138, 0.31948405504226685, -1.1662795543670654, -3.2905242443084717, 1.6138103008270264, };
const TfArray<1, int> tensor_dimension7 = { 1, { 25 } };
const ALIGN(16) float tensor_data8[25] = { 0.10694253444671631, 3.4968650341033936, 2.9777505397796631, 4.3410444259643555, 0.55986166000366211, 0.65868622064590454, 0.063925385475158691, 2.7932701110839844, 1.3643869161605835, 0.015038967132568359, 1.6991212368011475, 6.8608770370483398, 4.6390495300292969, 0.035943925380706787, 3.6190462112426758, 1.3305816650390625, -0.29859566688537598, 0.90405136346817017, 0.061867952346801758, 0.005358576774597168, 0.050185263156890869, -0.81942105293273926, 3.9280505180358887, -0.056274950504302979, 4.6562185287475586, };
const TfArray<1, int> tensor_dimension8 = { 1, { 25 } };
const ALIGN(16) float tensor_data9[51] = { 0.75561445951461792, 0.39152288436889648, -5.3549737930297852, 0.75104737281799316, 1.4412193298339844, 1.3605464696884155, -1.4329866170883179, 0.21466219425201416, 1.2113285064697266, -0.61139631271362305, -2.3310155868530273, 3.1424617767333984, -2.3280682563781738, 2.035956859588623, 2.3130645751953125, 1.8367283344268799, 3.5769088268280029, 1.3047387599945068, -1.109894871711731, 1.6396574974060059, 6.1560955047607422, -0.22676438093185425, 0.85482281446456909, 1.2857522964477539, 1.4993565082550049, -0.8442801833152771, 1.6066534519195557, -0.40159130096435547, 1.1439549922943115, 0.84503662586212158, 4.7654404640197754, 1.5344536304473877, 4.4627456665039062, 2.9556453227996826, 3.5590121746063232, 1.6902984380722046, 1.2107149362564087, -2.944115161895752, 1.0944113731384277, -0.56204408407211304, -0.083633899688720703, 4.5294928550720215, 0.78464490175247192, -1.9384952783584595, 0.6619182825088501, 3.4072513580322266, 3.3262596130371094, 1.0303351879119873, 0.74870848655700684, 1.2528674602508545, 3.9517230987548828, };
const TfArray<1, int> tensor_dimension9 = { 1, { 51 } };
const ALIGN(16) float tensor_data10[51] = { 0.045588552951812744, 0.90001803636550903, -0.031464532017707825, 2.3877124786376953, 1.3063896894454956, 1.0879409313201904, 2.6981441974639893, 2.0049536228179932, 1.6904325485229492, 0.0088200569152832031, -0.031567692756652832, 0.1196168065071106, 1.4922006130218506, 0.66827601194381714, 0.11032199114561081, 0.12519776821136475, 0.1032223105430603, 0.9079662561416626, 2.0177717208862305, -0.30703088641166687, 0.083938896656036377, 0.39887732267379761, 2.6417169570922852, 3.3607840538024902, 1.7490170001983643, -0.004883497953414917, -0.044678449630737305, 1.3251291513442993, 0.029768660664558411, 0.19575625658035278, 0.086815178394317627, -0.065843433141708374, 2.3647003173828125, 2.3086841106414795, 1.2352688312530518, 2.6892869472503662, -0.022764191031455994, -0.004077613353729248, 0.44284197688102722, -0.1280827522277832, 1.3221621513366699, 0.0097970068454742432, 0.53839671611785889, 0.16890710592269897, -0.048631772398948669, 2.9570579528808594, 2.6203677654266357, 1.8019614219665527, -0.37724208831787109, 0.018905855715274811, 1.5552742481231689, };
const TfArray<1, int> tensor_dimension10 = { 1, { 51 } };
const ALIGN(16) float tensor_data11[51] = { 1.2706784009933472, 0.61374384164810181, -1.8910315036773682, 0.070842891931533813, 0.6199650764465332, 1.9435964822769165, 0.96094405651092529, -2.0467929840087891, -0.29149067401885986, -2.6116087436676025, 0.55405604839324951, -1.0750783681869507, -2.0448904037475586, -1.1698949337005615, 0.67861014604568481, -1.3197369575500488, -1.1639825105667114, 1.1583013534545898, 1.9119513034820557, -1.3648679256439209, -1.7532503604888916, 3.4039344787597656, -0.36874639987945557, -1.8030778169631958, -0.31483584642410278, 3.0214385986328125, 0.39631688594818115, -2.7140259742736816, -0.17312979698181152, -0.49920827150344849, 0.24824714660644531, 1.1288635730743408, 2.6641542911529541, -1.0523668527603149, 3.2861919403076172, -2.0464074611663818, -1.1372053623199463, 0.53939241170883179, 0.61925673484802246, -3.1164047718048096, 1.4687807559967041, 1.0596530437469482, 0.41023021936416626, 1.7183213233947754, 0.19929355382919312, -1.1798219680786133, 0.15661013126373291, -0.19449567794799805, 2.2177319526672363, 3.2506260871887207, -0.70779460668563843, };
const TfArray<1, int> tensor_dimension11 = { 1, { 51 } };
const ALIGN(16) float tensor_data12[51] = { 2.975956916809082, 3.9380402565002441, 2.6068592071533203, -0.0044986605644226074, 1.3689669370651245, 3.4943053722381592, 3.0713012218475342, 2.7197988033294678, 0.055038034915924072, 0.26485192775726318, 0.017463922500610352, 0.05254596471786499, 0.021458268165588379, 0.42170235514640808, 1.9146761894226074, 0.12957322597503662, 3.015934944152832, 3.9191427230834961, 3.1167700290679932, 0.051240026950836182, -0.015692830085754395, 0.01822972297668457, 0.3238750696182251, 2.7538516521453857, -0.036217868328094482, 0.023707091808319092, 3.6118907928466797, 0.089137792587280273, -0.0014038681983947754, 0.078564107418060303, -0.82092082500457764, 2.7794070243835449, 2.6524882316589355, -0.026789069175720215, 0.0065563619136810303, 0.17240393161773682, -0.0091783404350280762, 4.4574995040893555, 2.9678077697753906, -0.21712148189544678, 0.064355611801147461, 2.7826118469238281, 0.030580699443817139, 0.012403488159179688, 0.038895666599273682, 3.1061694622039795, -0.035624071955680847, -0.36278802156448364, 2.9270892143249512, 1.8717546463012695, 0.35310608148574829, };
const TfArray<1, int> tensor_dimension12 = { 1, { 51 } };
const ALIGN(16) float tensor_data13[102] = { -1.2252552509307861, 0.1132754385471344, 0.48689821362495422, -0.58940953016281128, 2.8344967365264893, 2.2078404426574707, -0.097503900527954102, -0.20350402593612671, 0.21244329214096069, 0.94151866436004639, 0.50187146663665771, -0.66651231050491333, -0.47498095035552979, 1.3463290929794312, 0.75161939859390259, 1.0733039379119873, 1.7722547054290771, 2.7439794540405273, -1.3015592098236084, -0.19175221025943756, -3.4628975391387939, -0.38477253913879395, -0.62371134757995605, 1.4559085369110107, 0.97683191299438477, 0.99584227800369263, 0.3835982084274292, -0.35509490966796875, 1.4420344829559326, -0.068805336952209473, -0.54287564754486084, -0.3033440113067627, 0.22651976346969604, 0.07313770055770874, 0.70188641548156738, 1.557303786277771, -0.95259886980056763, -0.15573829412460327, 0.92365193367004395, -0.37671226263046265, 1.7993838787078857, 1.053851842880249, 3.6697161197662354, -0.42129302024841309, -1.0052461624145508, 0.83948135375976562, 1.0454674959182739, 1.444265604019165, 1.7400813102722168, 4.2966732978820801, -2.2828671932220459, -0.8464621901512146, 1.2172665596008301, 1.4398887157440186, -1.9397126436233521, -0.034026265144348145, 0.40906071662902832, 0.95893353223800659, 1.5926907062530518, 2.3659250736236572, -1.2285976409912109, -0.43784266710281372, -0.65144842863082886, 0.70146417617797852, 1.1783397197723389, 1.0227105617523193, -0.036010622978210449, 0.93308156728744507, 0.63688981533050537, 0.13824683427810669, 0.47800272703170776, -0.77558743953704834, 0.27346748113632202, -0.85919290781021118, 1.0089203119277954, 0.29466354846954346, -0.3384360671043396, 0.74598962068557739, -0.1660647988319397, 1.7220109701156616, -1.6232656240463257, -0.14511722326278687, 1.1092123985290527, 2.5375192165374756, 1.9554582834243774, 0.5605311393737793, 1.6360111236572266, 0.81853175163269043, 0.37823539972305298, 0.45298874378204346, 0.25893086194992065, 1.2852714061737061, 1.968808650970459, 3.4954986572265625, 1.6118912696838379, 0.12360328435897827, 1.1895903348922729, 3.029064416885376, 1.3548667430877686, 1.5199549198150635, 1.2159202098846436, 0.3062436580657959, };
const TfArray<1, int> tensor_dimension13 = { 1, { 102 } };
const ALIGN(16) float tensor_data14[102] = { 0.64845198392868042, -0.023929204791784286, 2.380547046661377, -0.23400828242301941, 1.4375712871551514, -0.023179382085800171, 0.21686422824859619, 1.3320088386535645, 1.0625045299530029, 0.14622747898101807, -0.029030889272689819, -0.092355489730834961, -0.28280526399612427, 0.37445390224456787, -0.17050909996032715, -0.022089056670665741, 0.10288894176483154, 1.0839788913726807, -0.015655301511287689, 1.319212794303894, -0.1247958242893219, -0.098680704832077026, 0.8277442455291748, 0.086989402770996094, -0.27157282829284668, -0.020494714379310608, 0.1538030207157135, 2.2759420871734619, 0.068448394536972046, 1.3767786026000977, 0.21569651365280151, 1.8473775386810303, 0.084086686372756958, 1.3224213123321533, 3.2899990081787109, 3.0049834251403809, 0.053803697228431702, 1.5210483074188232, -0.14396873116493225, 0.046931996941566467, 3.1071875095367432, -0.11246457695960999, -0.35743254423141479, 0.11889950931072235, -0.0057923197746276855, 0.018038392066955566, 2.5752396583557129, 0.022607624530792236, 0.79939508438110352, 1.9353475570678711, 0.13339254260063171, 2.9473071098327637, 1.7901554107666016, 1.357806921005249, -0.029807150363922119, 2.0585923194885254, -0.031073130667209625, 0.56827306747436523, 2.5681014060974121, -0.10802686214447021, -0.13756704330444336, 1.9750328063964844, 0.75882840156555176, -0.093366242945194244, 4.2047572135925293, 1.6130540370941162, -0.18554127216339111, 0.12829798460006714, 0.97200685739517212, 0.026741713285446167, 0.017290696501731873, 0.90982353687286377, -0.005334220826625824, -0.051819086074829102, 1.0608577728271484, 1.3751026391983032, -0.0031306575983762741, -0.040506660938262939, -0.49935811758041382, 1.8293913602828979, 1.0435440540313721, 0.73802042007446289, -0.15945374965667725, 0.0081416964530944824, -0.52721875905990601, 0.022336460649967194, 0.84407597780227661, -0.046732131391763687, -0.24557645618915558, 0.062050327658653259, 0.055538974702358246, -1.2222093343734741, 1.2522228956222534, 1.4425382614135742, 2.9781484603881836, 1.879784107208252, -0.55707979202270508, 0.18533563613891602, 1.3914159536361694, 1.2020673751831055, 1.4581847190856934, 0.89549881219863892, };
const TfArray<1, int> tensor_dimension14 = { 1, { 102 } };
const ALIGN(16) float tensor_data15[102] = { -1.2067062854766846, 1.252139687538147, 1.1272858381271362, 0.14903786778450012, 0.61894452571868896, 0.20613336563110352, -0.056650280952453613, 1.6479167938232422, -0.18088227510452271, 0.24230703711509705, -0.93051320314407349, 0.88577038049697876, 2.319955587387085, -0.23844814300537109, -1.6559404134750366, -2.0931425094604492, 0.48029398918151855, 1.1621593236923218, 0.19365441799163818, -1.4356507062911987, -0.30300316214561462, 0.27157619595527649, 0.12967392802238464, 1.4306330680847168, -2.1622927188873291, 1.3544338941574097, 0.063550680875778198, 0.42076659202575684, 1.5743813514709473, -0.26684573292732239, 0.81911873817443848, -1.5535560846328735, 0.83069062232971191, 0.66335511207580566, -0.07725226879119873, 0.29835855960845947, 1.5685522556304932, 0.31306126713752747, 0.16292279958724976, -0.35853511095046997, 1.3464062213897705, -0.64869040250778198, -0.06075751781463623, 1.0954873561859131, 0.77691298723220825, -1.0586309432983398, 2.4254798889160156, 2.0455582141876221, -1.4278171062469482, -0.63833844661712646, -1.0059583187103271, -1.5529725551605225, -2.317131519317627, -0.047146260738372803, 1.328890323638916, 0.11684226989746094, 1.8811925649642944, 0.8641664981842041, 1.4972422122955322, 1.3708319664001465, -0.58750671148300171, 1.3685988187789917, -0.81913077831268311, 1.4175584316253662, 1.7592519521713257, -0.58539736270904541, 1.2549079656600952, -0.77035421133041382, 1.2150894403457642, -1.1447967290878296, -0.42839720845222473, 2.0210113525390625, 0.98861497640609741, -1.248724102973938, 0.203224778175354, -0.096403419971466064, 0.99451154470443726, 0.21334540843963623, -1.4515899419784546, -0.093143761157989502, 1.1874771118164062, 0.86255961656570435, 1.1739124059677124, 0.66702330112457275, 0.03458702564239502, 0.83083641529083252, -0.051093339920043945, -0.32526865601539612, -1.059180736541748, -0.27763694524765015, 1.2680174112319946, 0.69268906116485596, 2.2065324783325195, 0.80692005157470703, -1.0421528816223145, 0.2677721381187439, 1.4394564628601074, 1.280254602432251, 0.12397187948226929, -0.49921965599060059, 0.097353875637054443, 0.67365562915802002, };
const TfArray<1, int> tensor_dimension15 = { 1, { 102 } };
const ALIGN(16) float tensor_data16[102] = { -0.029215335845947266, -0.15921726822853088, 0.10898083448410034, -0.1716865599155426, -0.20483928918838501, -0.69314956665039062, -0.070376783609390259, -0.06275564432144165, 2.6949701309204102, 1.6071887016296387, 2.4060134887695312, 2.433225154876709, -1.2879056930541992, -0.85176336765289307, -0.13722796738147736, -0.93400633335113525, 1.308358907699585, 1.8579752445220947, -0.082298040390014648, -0.17767289280891418, -0.0081597864627838135, -1.7265018224716187, -0.13777989149093628, 1.4894148111343384, -0.23069608211517334, 2.7623293399810791, -0.53079044818878174, -0.78889399766921997, 2.12009596824646, -0.80069738626480103, 2.9752411842346191, 1.9757815599441528, -0.1227409839630127, -0.26325440406799316, -0.7524183988571167, 3.0287060737609863, 1.4882662296295166, 2.2977304458618164, -1.1214330196380615, 1.8049509525299072, 2.1621823310852051, 1.5742967128753662, -0.41682654619216919, -0.3114241361618042, 1.8625226020812988, -0.66885983943939209, 1.6426060199737549, 0.27079093456268311, 2.293975830078125, -1.0339281558990479, 0.7991100549697876, 0.0027685761451721191, -0.46367701888084412, -0.95969116687774658, -0.19574989378452301, -0.2767450213432312, 1.1864310503005981, 0.020251572132110596, -0.12754455208778381, -1.063180685043335, -0.031994938850402832, -3.172067403793335, 0.96080148220062256, -0.023625940084457397, 1.4652450084686279, -0.14357995986938477, 3.7808239459991455, -0.39970886707305908, 0.34094688296318054, -0.34838080406188965, -0.010240763425827026, 1.4490995407104492, -0.48910653591156006, 0.073342621326446533, -0.16339316964149475, 0.56521713733673096, 3.7220346927642822, 4.2238225936889648, 1.1952394247055054, 1.9131197929382324, -0.054956525564193726, -0.11697930097579956, -3.539961576461792, -0.015461951494216919, -0.60369026660919189, 2.4138693809509277, -1.9035642147064209, -0.0018829107284545898, -0.64021074771881104, 1.693195104598999, -0.14414477348327637, -0.91530179977416992, -0.87816661596298218, 0.17014181613922119, 0.15054517984390259, -0.00051473081111907959, -1.5148258209228516, 1.66148841381073, -0.016117393970489502, 2.397200345993042, -1.3732112646102905, -0.39429780840873718, };
const TfArray<1, int> tensor_dimension16 = { 1, { 102 } };
const ALIGN(16) float tensor_data17[102] = { 3.3942451477050781, -0.61799734830856323, 0.44847124814987183, 0.60681056976318359, -1.8399581909179688, -1.569366455078125, 0.31229177117347717, 0.75032889842987061, 1.9062824249267578, 1.1554913520812988, 1.1033700704574585, 0.96724575757980347, 0.26510769128799438, 2.5991318225860596, 0.95084291696548462, 1.1653270721435547, 0.866996169090271, 1.0251777172088623, 1.0026068687438965, 1.275225043296814, 1.6352925300598145, 0.0093510150909423828, -0.095038175582885742, -0.0050479769706726074, 3.2935788631439209, 0.72342085838317871, -1.6393923759460449, 1.4450181722640991, 0.72544437646865845, -0.86245733499526978, 0.37767571210861206, 1.3154966831207275, 0.52056366205215454, 0.0076465606689453125, 1.2720264196395874, 1.4684399366378784, -0.9046623706817627, 0.66447222232818604, 1.5902924537658691, 0.21164038777351379, -1.3219336271286011, 1.324018120765686, 1.3103262186050415, 0.99465203285217285, 0.92864465713500977, 0.18363253772258759, 0.92190003395080566, 1.0465526580810547, -0.090724378824234009, -0.013741075992584229, 1.1396533250808716, 1.1555211544036865, 0.86203426122665405, 3.3362882137298584, 1.1806094646453857, 0.98616176843643188, 1.5310413837432861, -2.120290994644165, 1.0013101100921631, 0.60324174165725708, 1.0009359121322632, 1.4416885375976562, 0.61387413740158081, 0.85886484384536743, 0.15008488297462463, 1.5147720575332642, 1.7587776184082031, -0.59344792366027832, 0.60500442981719971, 0.96425879001617432, 1.7321584224700928, 0.92476797103881836, 0.54154574871063232, 0.86248254776000977, 2.0575261116027832, 0.327341228723526, 1.0848929882049561, -0.4523853063583374, 1.2853355407714844, 1.5914653539657593, -0.43589657545089722, 0.93716418743133545, -0.4094771146774292, 1.6061670780181885, 1.2708680629730225, 1.3984572887420654, -0.18940186500549316, 0.68725264072418213, -0.77520304918289185, -0.26579242944717407, 0.70099645853042603, 0.9110838770866394, 0.40346276760101318, 0.81246870756149292, -4.4528670310974121, 1.5700206756591797, 0.67888665199279785, 0.5559421181678772, 0.77964138984680176, 0.56447696685791016, 1.2514894008636475, -0.62181836366653442, };
const TfArray<1, int> tensor_dimension17 = { 1, { 102 } };
const ALIGN(16) float tensor_data18[102] = { 0.2929653525352478, -0.95374095439910889, -0.02470889687538147, -1.2260758876800537, -0.082267642021179199, -0.010844320058822632, 0.14231696724891663, -1.1390787363052368, 1.6300594806671143, -0.40801611542701721, -0.023868858814239502, 1.6921123266220093, -0.019529521465301514, 2.0010766983032227, 2.1646709442138672, -0.34072026610374451, 2.1604137420654297, 0.0094845890998840332, 1.6518909931182861, -1.0145372152328491, 2.8813469409942627, -0.00056976079940795898, -0.45487689971923828, -0.010196059942245483, -0.052374124526977539, 1.4736649990081787, -0.30341571569442749, 2.0750916004180908, 2.209688663482666, 2.0505754947662354, 1.9981634616851807, -0.44050681591033936, -0.020102977752685547, -0.19145670533180237, 4.4678893089294434, 0.038218080997467041, 0.0078525543212890625, 2.0138468742370605, 1.8661916255950928, -0.017054498195648193, -0.031039118766784668, 4.3725934028625488, -0.76443690061569214, -0.00039803981781005859, -0.16519659757614136, 0.093246579170227051, 2.0732975006103516, -1.5678753852844238, 0.1054689884185791, 0.01944202184677124, -1.9108177423477173, -0.40582418441772461, -0.0080047845840454102, -0.20924344658851624, 2.6327481269836426, 1.4619839191436768, -0.078664660453796387, -0.54555428028106689, 4.1605663299560547, 2.5601162910461426, 1.4694243669509888, -0.0453147292137146, 2.8019108772277832, 0.0076910853385925293, -0.007853090763092041, 1.3546351194381714, -0.2813740074634552, -0.61315464973449707, 1.8748717308044434, -1.896918773651123, 1.2409069538116455, 3.9052257537841797, 0.0044207870960235596, -0.48085731267929077, 2.2013139724731445, -0.79856079816818237, 2.3268740177154541, 1.9565836191177368, -0.0049959421157836914, 0.0097497701644897461, -1.1402922868728638, -0.026039361953735352, -0.36237224936485291, -0.35330307483673096, -0.64563238620758057, 1.6826186180114746, -0.49403363466262817, -0.0089949816465377808, 1.3482916355133057, -0.0273246169090271, -0.062298059463500977, -0.97421735525131226, 0.012174040079116821, 3.1727869510650635, -0.40553689002990723, -1.4351001977920532, 3.2173500061035156, 2.1274151802062988, 3.0603079795837402, 2.7269082069396973, -2.0440168380737305, -0.10065531730651855, };
const TfArray<1, int> tensor_dimension18 = { 1, { 102 } };
const ALIGN(16) float tensor_data19[102] = { 2.8354108333587646, 1.363853931427002, 0.54916501045227051, 3.0060532093048096, 0.25072330236434937, 1.3180649280548096, -0.14032253623008728, 0.1220211386680603, 0.67298388481140137, 0.89588475227355957, 1.7032032012939453, -0.22407156229019165, 0.55807971954345703, 0.98428833484649658, 0.4143679141998291, -0.10420525074005127, 0.27497810125350952, 0.81504976749420166, 0.95371532440185547, 1.1113624572753906, 1.4243113994598389, 0.72034144401550293, 1.4298219680786133, 2.0804390907287598, 0.027398049831390381, 1.4566917419433594, 1.6821465492248535, 0.61239546537399292, 0.75666356086730957, 0.78675961494445801, 1.6905008554458618, 1.4863824844360352, 0.052743703126907349, 0.13352265954017639, 0.65091180801391602, 2.0350058078765869, 1.1057896614074707, 0.066325664520263672, 0.6071237325668335, 1.3002481460571289, 1.0873616933822632, -0.55130529403686523, -1.0520163774490356, 0.73114794492721558, 0.85802543163299561, 0.60647523403167725, -0.94202286005020142, -0.13787901401519775, 0.19178080558776855, 1.0242091417312622, 0.56704211235046387, 0.46158769726753235, -0.027616001665592194, 1.2476344108581543, 2.2618982791900635, 0.0069164633750915527, 0.39273920655250549, 1.4782952070236206, -0.15057903528213501, 3.021867036819458, 1.4514424800872803, 0.91911202669143677, -0.96335446834564209, -1.2627201080322266, 0.97247564792633057, 1.6025724411010742, 1.3965868949890137, 0.47801429033279419, 2.0883634090423584, 4.1179614067077637, 0.77163064479827881, 1.3609024286270142, 1.0179071426391602, 0.67380785942077637, 0.53743112087249756, -0.87407410144805908, -0.14787775278091431, -0.67710405588150024, 0.9654994010925293, 1.2368303537368774, 1.7826964855194092, -1.3432937860488892, 3.4137728214263916, 0.92250382900238037, 1.1688458919525146, -0.6511465311050415, -0.43876191973686218, 0.45438691973686218, 1.1681796312332153, 0.21504935622215271, 0.0056262612342834473, -0.17626118659973145, 1.0282436609268188, 0.86949032545089722, 0.86791479587554932, 0.10981696844100952, 0.20406174659729004, 1.0545564889907837, 0.76521724462509155, -0.49260950088500977, 0.79455286264419556, 1.0838258266448975, };
const TfArray<1, int> tensor_dimension19 = { 1, { 102 } };
const ALIGN(16) float tensor_data20[102] = { -0.31610751152038574, 2.6145811080932617, -0.68108052015304565, -0.27206671237945557, 2.7079663276672363, 2.5256493091583252, 0.005564570426940918, 2.3126006126403809, -0.50821340084075928, -0.27563852071762085, 1.3257510662078857, -0.13969793915748596, 2.2426126003265381, 2.1298065185546875, 0.71529561281204224, -0.66364568471908569, -0.86384373903274536, 1.9413659572601318, 0.12377926707267761, -0.95017272233963013, 1.9121365547180176, -0.034717559814453125, 2.0138983726501465, -0.35386759042739868, -0.14884060621261597, 1.8176844120025635, -0.048613250255584717, 1.7856506109237671, -0.63803988695144653, -0.28363990783691406, 0.17084312438964844, 2.8722691535949707, -0.0053553879261016846, 1.9339606761932373, -0.3643888533115387, -0.44235971570014954, 0.26770216226577759, -1.5726884603500366, -0.44949108362197876, -0.0098451972007751465, 2.5335912704467773, -0.002381443977355957, -0.018463194370269775, -0.40302568674087524, 1.9391757249832153, 0.22057920694351196, -0.018641859292984009, 2.3489935398101807, 2.1459188461303711, 0.015229910612106323, 2.1843240261077881, 2.1850788593292236, -0.012447595596313477, 1.8487398624420166, -0.012198448181152344, 1.7127301692962646, 0.057693123817443848, -0.034200727939605713, -0.65146166086196899, 1.9216817617416382, -0.42488604784011841, -0.88339447975158691, -0.06045079231262207, -0.00031244754791259766, -0.5620991587638855, -0.96780121326446533, 2.0136394500732422, -0.19094187021255493, 3.1427407264709473, -2.0730650424957275, -0.30015736818313599, 3.0631780624389648, 0.032393932342529297, -0.13278681039810181, -0.051637411117553711, 2.1199290752410889, 2.9339337348937988, 0.060401566326618195, 2.4862766265869141, 1.8259479999542236, 0.026435345411300659, 0.31773066520690918, 1.3661026954650879, 1.8475075960159302, 3.4992403984069824, 1.7901456356048584, -0.14693993330001831, 2.3244891166687012, -0.0083251297473907471, 1.7703059911727905, -0.095728576183319092, -0.0023157596588134766, -0.41867172718048096, -0.52947205305099487, 2.9156770706176758, 0.0467720627784729, 3.748021125793457, 2.6224253177642822, 0.012935832142829895, -0.6826898455619812, -0.82677644491195679, 0.010065019130706787, };
const TfArray<1, int> tensor_dimension20 = { 1, { 102 } };
const ALIGN(16) float tensor_data21[102] = { 0.77427351474761963, -3.2852199077606201, -0.50985872745513916, 0.11233210563659668, 1.0450961589813232, 1.083113431930542, 0.51900696754455566, 1.1774656772613525, 1.3255709409713745, -0.20105847716331482, 0.28235596418380737, 0.83452999591827393, 0.45574754476547241, 0.42340275645256042, 2.4323208332061768, 0.74690771102905273, -0.46523118019104004, 2.145416259765625, 0.7520175576210022, 0.56979119777679443, -0.055543482303619385, -0.18652468919754028, 0.75672233104705811, 1.028754711151123, -0.98727548122406006, 0.2851274311542511, -0.088664263486862183, 1.6079926490783691, 0.31011202931404114, -0.076524347066879272, 0.95459103584289551, 0.53253579139709473, 0.57622051239013672, -0.12590354681015015, 0.65834736824035645, 1.5625362396240234, -1.9721392393112183, 0.46674007177352905, 1.4350681304931641, -1.7267110347747803, 0.76264935731887817, -1.8132946491241455, 3.1357502937316895, 1.5914356708526611, -0.9675595760345459, 0.21711251139640808, -0.29263269901275635, 0.48944637179374695, 0.91179311275482178, 0.68460750579833984, 0.79433208703994751, 0.12118273973464966, -0.32361030578613281, 1.0518412590026855, 1.2057974338531494, 2.3328814506530762, -1.1317715644836426, 2.1257529258728027, 2.5676419734954834, -0.18674179911613464, 0.10041323304176331, 0.94558215141296387, -0.3646666407585144, 1.2109724283218384, 0.73810023069381714, 0.47641462087631226, 0.37246957421302795, 1.200751781463623, -2.0407688617706299, 1.9696807861328125, 0.26212191581726074, -0.077154621481895447, 1.2633054256439209, -0.048324763774871826, 0.11723610758781433, 0.21601490676403046, -0.087570846080780029, -0.76783829927444458, 0.077475786209106445, 0.95025205612182617, -0.82096529006958008, -0.71830761432647705, 0.82186567783355713, 0.42157411575317383, 0.44592875242233276, 0.79979264736175537, 0.48726308345794678, 1.325986385345459, 1.8815815448760986, -0.022325515747070312, 0.34315508604049683, 1.1870213747024536, 1.5827465057373047, -0.3570103645324707, 1.843944787979126, 0.018134474754333496, 0.5250478982925415, 0.6863211989402771, 1.4761655330657959, 0.57140511274337769, 1.4581824541091919, 0.85348051786422729, };
const TfArray<1, int> tensor_dimension21 = { 1, { 102 } };
const ALIGN(16) float tensor_data22[102] = { 0.25569736957550049, -0.016558438539505005, -0.86251711845397949, 2.6156737804412842, 0.0027210116386413574, -0.086873769760131836, -0.18611592054367065, -0.033981308341026306, -0.01156461238861084, -0.14827269315719604, -0.13310915231704712, 2.3790988922119141, 2.3433189392089844, 3.3937559127807617, 1.1382721662521362, -0.019928574562072754, -0.28305745124816895, 1.7543666362762451, -0.060488462448120117, 2.9111204147338867, -0.00030624866485595703, -0.16045796871185303, 2.1163101196289062, 2.5846314430236816, 0.10985416173934937, -0.096086800098419189, 1.7594150304794312, -0.68087178468704224, -0.3664475679397583, -0.22084742784500122, 2.4969296455383301, -0.37049984931945801, -0.16938799619674683, -0.22171670198440552, 0.18693476915359497, 0.01035657525062561, -0.018529593944549561, 1.5051743984222412, -0.0095241665840148926, -0.010907560586929321, -0.90076547861099243, 1.8642497062683105, -0.042979121208190918, 2.0333912372589111, 0.10639786720275879, -0.27899879217147827, 0.34192526340484619, 0.0057415366172790527, 1.975506067276001, -0.023365430533885956, 2.7683694362640381, -0.63650095462799072, -0.0015715956687927246, -0.499031662940979, 2.7732877731323242, -0.10352790355682373, -0.33805233240127563, -0.65535604953765869, 0.36161643266677856, -0.65871965885162354, 2.1030499935150146, -0.50363659858703613, -0.63973695039749146, 1.6298313140869141, 2.2275080680847168, 2.8299603462219238, 2.1299841403961182, 2.3191251754760742, -0.051761329174041748, 2.4835059642791748, -0.95367228984832764, -0.052300393581390381, -0.082654118537902832, 2.2991280555725098, -0.085980236530303955, 1.5696097612380981, 2.1234292984008789, 1.5955989360809326, -0.35999774932861328, -0.32563501596450806, -1.5703127384185791, -0.50326848030090332, 2.5393040180206299, 1.4354555606842041, -0.79860246181488037, 0.0065716207027435303, -0.0049532651901245117, 2.3354475498199463, 2.7374496459960938, -0.27915972471237183, -0.12834411859512329, -0.50356221199035645, 1.9487622976303101, -0.24049156904220581, -0.24972653388977051, -0.31299358606338501, -1.1497831344604492, -1.0618435144424438, 2.7357532978057861, 2.4971067905426025, 0.057399213314056396, -0.027825295925140381, };
const TfArray<1, int> tensor_dimension22 = { 1, { 102 } };
const ALIGN(16) float tensor_data23[102] = { 0.97678112983703613, 0.53172272443771362, 0.41316530108451843, -0.28856682777404785, 0.31961691379547119, 0.22788804769515991, 1.2779511213302612, -0.95114666223526001, 0.37420612573623657, 0.24821904301643372, 1.6634774208068848, -0.67325609922409058, 0.55896401405334473, -0.34550485014915466, -0.49254205822944641, 1.9308638572692871, 0.13520963490009308, -0.62475419044494629, 0.13785210251808167, -0.55598407983779907, 0.44096788763999939, 1.697206974029541, 0.37712964415550232, 1.5605823993682861, 0.92705452442169189, 0.36575254797935486, 1.7347888946533203, 1.4780377149581909, -1.5764760971069336, 0.44682365655899048, 0.91217899322509766, 0.8105015754699707, 0.7510717511177063, 1.3951210975646973, 1.1533148288726807, -0.69243371486663818, 2.6573796272277832, -0.76185381412506104, 0.92625659704208374, 1.098768949508667, 1.2585543394088745, 1.0109964609146118, 1.6139307022094727, 0.46257889270782471, -0.4048219621181488, 0.45124351978302002, 0.98998826742172241, 0.50373226404190063, 0.49906879663467407, -0.11487022042274475, -0.020409137010574341, 0.85168671607971191, 0.93247896432876587, 0.98816126585006714, -0.22816511988639832, 1.1767122745513916, 1.3109791278839111, 1.4342231750488281, 1.1448237895965576, 0.45688065886497498, 0.88774871826171875, 1.1001738309860229, 1.3288880586624146, 0.49991196393966675, -0.04658055305480957, -1.5265891551971436, 0.58455568552017212, 0.3936392068862915, 0.56142795085906982, 0.31283509731292725, 1.1058380603790283, 0.71099871397018433, 0.91371631622314453, -0.19466742873191833, 0.059356138110160828, -0.076572507619857788, 1.6134247779846191, -0.11599266529083252, 0.80135256052017212, -3.5301840305328369, 0.12872663140296936, 0.71309566497802734, 1.9823623895645142, 0.81385397911071777, 0.47820198535919189, 1.5892899036407471, -0.17463988065719604, -0.23299139738082886, 0.59635776281356812, 1.1946537494659424, 2.8603765964508057, -0.12429362535476685, 1.3922501802444458, 0.28626689314842224, 0.17067864537239075, 1.2345566749572754, 1.166187047958374, 0.89526939392089844, 1.0882940292358398, -0.046372890472412109, 1.1911797523498535, 1.0770552158355713, };
const TfArray<1, int> tensor_dimension23 = { 1, { 102 } };
const ALIGN(16) float tensor_data24[102] = { 2.3304901123046875, 2.1426286697387695, -0.04652857780456543, -0.35042136907577515, 2.0837769508361816, 3.2155776023864746, 2.6126313209533691, -0.10976207256317139, 2.3505487442016602, 2.2107915878295898, -0.074533998966217041, -0.11343377828598022, 0.002344965934753418, 1.0354920625686646, -0.081924885511398315, -0.74547737836837769, -0.0074440240859985352, -0.12593671679496765, 2.3809690475463867, 0.018593311309814453, -0.015378236770629883, -0.013642549514770508, 2.7575061321258545, 2.5798115730285645, 3.2425169944763184, 3.1656551361083984, 2.9908380508422852, -0.036354422569274902, 0.15944129228591919, 1.9475692510604858, 2.6868023872375488, 3.6111850738525391, 3.3156414031982422, 3.5605406761169434, 2.2119276523590088, -0.57910335063934326, -0.027475714683532715, -0.11916017532348633, -0.12321865558624268, 2.8534433841705322, -0.22557580471038818, 3.6783614158630371, 3.2941877841949463, -0.14496117830276489, -0.077311575412750244, 0.18459153175354004, 2.8217215538024902, 2.5232172012329102, -0.13203147053718567, -0.037423312664031982, -0.040712475776672363, 2.596644401550293, 0.22486823797225952, 3.2168755531311035, -0.021092608571052551, 2.4685156345367432, -0.36039042472839355, -0.030683338642120361, 2.3304429054260254, -0.093606770038604736, 0.2180790901184082, 2.8382022380828857, -0.13305097818374634, 2.3066573143005371, 0.082143604755401611, -0.028223156929016113, 2.545428991317749, 2.7412948608398438, -0.12136024236679077, 0.12337756156921387, -0.10176777839660645, -0.066456377506256104, 1.8794480562210083, -0.069108158349990845, -0.0055709481239318848, -0.43487870693206787, 2.6440250873565674, -0.015730202198028564, -0.24141085147857666, -0.16478234529495239, -0.058944821357727051, 2.1636571884155273, 2.9026665687561035, -0.13076788187026978, 0.01276695728302002, -0.014643549919128418, 2.7457830905914307, 2.175567626953125, -0.48484009504318237, 2.4615159034729004, -0.044480562210083008, -0.0033659934997558594, 3.15616774559021, 0.49833998084068298, 2.4895105361938477, -0.029437422752380371, 2.9738483428955078, -0.19711482524871826, 3.0543124675750732, -0.14861506223678589, 2.6406805515289307, 3.1612017154693604, };
const TfArray<1, int> tensor_dimension24 = { 1, { 102 } };
const ALIGN(16) float tensor_data25[204] = { 0.020816147327423096, -0.20711535215377808, 0.38478407263755798, 0.41034701466560364, 0.58999854326248169, 0.38886019587516785, 0.62057268619537354, -1.0309513807296753, 0.63376998901367188, 0.96499466896057129, 1.3763840198516846, 1.1062206029891968, -1.1455297470092773, 0.76641809940338135, 0.80076926946640015, 0.19970622658729553, -0.12080049514770508, 1.2437269687652588, 0.68551832437515259, 0.48646202683448792, -3.2227072715759277, 0.71824353933334351, 1.6617590188980103, 1.7799421548843384, 0.5524369478225708, 0.51930767297744751, -1.4363622665405273, -1.5504134893417358, 2.1698212623596191, 1.1382216215133667, 0.23864486813545227, 0.37556928396224976, 1.9367269277572632, -0.79972678422927856, 1.2873668670654297, -0.31655424833297729, 0.61604541540145874, -0.43423885107040405, 1.4794678688049316, -0.4140675961971283, 0.52662068605422974, 0.27557909488677979, 0.32759979367256165, 0.82357388734817505, 1.561991810798645, -0.82774156332015991, -0.80454748868942261, -0.54818564653396606, -0.23288506269454956, -0.66965401172637939, -0.38935863971710205, 1.3959136009216309, 0.22770500183105469, 0.81293380260467529, 0.92188906669616699, -0.16498291492462158, 0.22096699476242065, 1.3109204769134521, 0.50663959980010986, 0.11244723200798035, 0.4454667866230011, 0.35542756319046021, 0.47829347848892212, -0.045593947172164917, 1.4347233772277832, -0.53470498323440552, 0.88675224781036377, -1.4090228080749512, -1.9428428411483765, -2.7880616188049316, -0.95636945962905884, 0.63281643390655518, 1.3098341226577759, -0.079598605632781982, -3.2361459732055664, -0.45713475346565247, 0.76919174194335938, -0.34200394153594971, 0.37220901250839233, -0.68429660797119141, 0.63965773582458496, 0.53901749849319458, 1.1154536008834839, 1.1508687734603882, -0.21523116528987885, 1.4004998207092285, 1.2607903480529785, 2.9681463241577148, -0.37063801288604736, -0.076005697250366211, 0.13417485356330872, 1.3700969219207764, 0.094266831874847412, 0.50856959819793701, 1.8612979650497437, -0.89379572868347168, 0.33488970994949341, 0.36714226007461548, -0.77240395545959473, -1.7625967264175415, -0.070656530559062958, -0.31760799884796143, 0.97935783863067627, 0.35647213459014893, 0.13668942451477051, 1.1205368041992188, -1.5105049610137939, 0.83480715751647949, 0.13994026184082031, -0.26346194744110107, 1.5855839252471924, 0.94963634014129639, 0.18041723966598511, -0.11960873007774353, 0.97794449329376221, 0.85338521003723145, -0.67469912767410278, 0.96697866916656494, 0.78467142581939697, 1.0944167375564575, -1.1662642955780029, -1.1232463121414185, 0.45525112748146057, 0.63412266969680786, 0.94218313694000244, -0.7192690372467041, -1.0666567087173462, 1.0103429555892944, -0.35575330257415771, 0.33941125869750977, 0.53047019243240356, 0.48748871684074402, -0.17277458310127258, 0.49744796752929688, 3.0054192543029785, 1.0871111154556274, -1.2755804061889648, 0.74228882789611816, -1.1295953989028931, -0.87567222118377686, 1.4653548002243042, 0.78340613842010498, -0.47112447023391724, -0.51962184906005859, 1.0576317310333252, 0.60190039873123169, -0.70022177696228027, -0.16611023247241974, 1.7800374031066895, -0.84962207078933716, 1.1116739511489868, -2.0996854305267334, -2.8412795066833496, -0.31327301263809204, 0.21450760960578918, 1.3428796529769897, 0.24266278743743896, -0.023313075304031372, 0.20606514811515808, 0.75539171695709229, -1.3173054456710815, 0.61324042081832886, -0.060998588800430298, 1.9458143711090088, 1.2496316432952881, 0.54042434692382812, -0.22194063663482666, 0.55645781755447388, 0.86463338136672974, 0.71494245529174805, -0.34545242786407471, 1.1739213466644287, 0.43449878692626953, -0.93863469362258911, 0.94799196720123291, -0.80704927444458008, 0.80241739749908447, -0.75199198722839355, -0.37519779801368713, 0.80637049674987793, -0.21886754035949707, 0.93720352649688721, -1.0212734937667847, 0.95270681381225586, -1.2373014688491821, -1.4108489751815796, -0.080168783664703369, 0.43842306733131409, -0.46078327298164368, 1.2270160913467407, 0.62749481201171875, 0.86605298519134521, 1.6881477832794189, -0.47393923997879028, 1.4029543399810791, -0.40228796005249023, -2.1156177520751953, 1.6113584041595459, 0.08788144588470459, -0.65215116739273071, 0.94878125190734863, 1.1001365184783936, 1.5432600975036621, 0.94598174095153809, };
const TfArray<1, int> tensor_dimension25 = { 1, { 204 } };
const ALIGN(16) float tensor_data26[204] = { 2.2418444156646729, 0.02071768045425415, 3.4000575542449951, 2.1364169120788574, -0.019167661666870117, 2.9768376350402832, -0.25047191977500916, -0.29250332713127136, -0.399923175573349, 3.868297815322876, 3.6004538536071777, 2.9960198402404785, -0.71636247634887695, 3.1653881072998047, 2.8634192943572998, 0.0015618205070495605, 2.7829678058624268, -1.526134729385376, 2.5223977565765381, 1.9744219779968262, -0.62022912502288818, 2.9490547180175781, -0.90856069326400757, 1.5698208808898926, 3.0896072387695312, 2.4394512176513672, 2.6068811416625977, -0.83146888017654419, -1.2683020830154419, -0.37309646606445312, -0.0060987472534179688, -0.28516551852226257, -1.0625554323196411, -0.78687727451324463, -0.5842592716217041, 2.4448127746582031, 0.0032909512519836426, -0.71175181865692139, 3.2948532104492188, -0.82041186094284058, -0.16121304035186768, -0.055066883563995361, 2.772573709487915, 1.6602845191955566, 2.1840636730194092, 2.7201681137084961, 1.7947678565979004, 2.3590075969696045, -1.2965766191482544, -0.77706849575042725, -0.40742766857147217, -0.050629496574401855, -0.019339561462402344, -0.019246816635131836, 2.6064295768737793, 1.6894245147705078, 2.3154609203338623, 2.9329800605773926, 2.1114969253540039, 3.3386526107788086, -0.021274268627166748, 2.6985237598419189, -0.5732271671295166, 0.07553727924823761, 2.0527901649475098, -0.67032182216644287, -0.23653194308280945, -0.34762096405029297, -0.16647851467132568, -0.028713494539260864, -0.17905610799789429, 3.0100007057189941, 3.482874870300293, 3.0885112285614014, -0.21093623340129852, -0.0090708434581756592, 1.5612027645111084, 2.7855072021484375, 3.1004924774169922, 0.016003996133804321, 3.7163081169128418, -0.44518199563026428, -0.82387626171112061, 2.3252789974212646, -1.1334728002548218, 2.0683953762054443, 3.3227696418762207, -0.012838184833526611, -0.16739469766616821, 2.7358636856079102, -0.65997922420501709, 2.2143890857696533, -0.16267788410186768, -0.020120114088058472, -2.4743673801422119, -1.0340510606765747, 2.4426755905151367, -2.1433322429656982, -0.025761246681213379, -0.78472793102264404, -0.017380237579345703, 4.1259016990661621, 2.5611648559570312, -0.19688734412193298, -0.94455653429031372, 1.3735777139663696, -1.3975976705551147, -0.37819394469261169, 2.3849568367004395, 1.9376450777053833, 2.4813497066497803, 3.4329977035522461, -0.94307011365890503, -1.0188208818435669, -0.89894026517868042, -0.72022503614425659, 0.74292981624603271, 2.3232340812683105, -2.4148886203765869, 2.7241079807281494, -0.024382621049880981, -0.026264369487762451, 2.6544122695922852, -1.6321126222610474, 2.3261003494262695, -0.20390963554382324, -0.030416041612625122, 1.7340304851531982, 2.0357294082641602, 3.1267340183258057, -1.1143287420272827, -0.49764072895050049, -0.35143685340881348, -1.0676059722900391, 2.3887162208557129, -1.3805034160614014, -0.019371241331100464, 2.3796238899230957, -0.19885632395744324, -0.038123548030853271, 3.0793681144714355, 2.4593055248260498, -0.18858075141906738, -0.42346489429473877, 2.4319417476654053, 2.7452590465545654, 0.0013573765754699707, -0.012848526239395142, -1.1916736364364624, -0.97272223234176636, 3.2292633056640625, -0.31460881233215332, -0.40559619665145874, 2.8726744651794434, 2.3808026313781738, 2.0202102661132812, 3.1848664283752441, -1.1790680885314941, -1.0056732892990112, 2.0542032718658447, -0.61594271659851074, 2.4400308132171631, 2.4077887535095215, 1.4797730445861816, -0.68308967351913452, -0.040750235319137573, 2.7884378433227539, 2.5449366569519043, -0.018030762672424316, 2.9374909400939941, -0.8906434178352356, 2.8010313510894775, 1.4352984428405762, -0.28212159872055054, 2.1782500743865967, -1.8556118011474609, 1.8285049200057983, -1.0141948461532593, 2.613013744354248, -0.71721577644348145, 1.8468790054321289, 2.3158347606658936, -0.23050129413604736, 2.4386153221130371, 1.8525004386901855, -0.23900872468948364, 2.3370521068572998, 2.7867527008056641, -0.20387965440750122, -0.052282959222793579, -1.8620171546936035, 1.8755893707275391, 1.8332477807998657, -0.31616741418838501, 3.1958122253417969, 3.1158111095428467, -0.62034320831298828, 1.552598237991333, 2.5628376007080078, -0.43087944388389587, 2.5576565265655518, 2.4623842239379883, 3.2207493782043457, -0.48462656140327454, };
const TfArray<1, int> tensor_dimension26 = { 1, { 204 } };
const ALIGN(16) float tensor_data27[204] = { -1.0287024974822998, 5.1333980560302734, 0.24025475978851318, 2.9656169414520264, 4.0923333168029785, -1.5283170938491821, 4.618168830871582, 2.3056988716125488, -0.29153841733932495, 2.6122837066650391, -0.97095215320587158, 5.5818996429443359, 2.1726751327514648, 7.3267989158630371, 3.1014583110809326, 3.3159074783325195, 5.2150635719299316, -6.1758651733398438, 1.7791106700897217, 2.2316522598266602, 1.611114501953125, 3.4304366111755371, 1.5042781829833984, 6.8819403648376465, 1.538189172744751, 2.4263725280761719, 1.9421460628509521, 2.4821031093597412, 4.8787975311279297, -2.764030933380127, 1.5497324466705322, -2.6878938674926758, 8.329986572265625, 1.1572291851043701, -1.190338134765625, 0.36598899960517883, 2.3816614151000977, 2.4024393558502197, 0.4234764575958252, 2.0095372200012207, 0.88443392515182495, 5.3407988548278809, 0.96875137090682983, 1.2697216272354126, -0.75235468149185181, 0.80156403779983521, 4.1217684745788574, 1.8271501064300537, 3.652132511138916, 3.5985651016235352, 4.1677517890930176, 2.1734111309051514, 2.4994633197784424, -2.1130552291870117, 2.4114065170288086, -0.90722519159317017, 1.4764053821563721, 2.5989737510681152, 7.282433032989502, 0.066472746431827545, -0.14218026399612427, 3.1334025859832764, 3.4916520118713379, 4.9833388328552246, 4.1199584007263184, -2.0622704029083252, 2.3749053478240967, -0.83356773853302002, 1.8454917669296265, 1.5040045976638794, 8.5056095123291016, 1.8522535562515259, 3.7466931343078613, 2.4935314655303955, 3.3323225975036621, 3.8697333335876465, 4.3160262107849121, 5.8284158706665039, 0.39004528522491455, 4.0709934234619141, 2.8128681182861328, -0.69290757179260254, 2.1149806976318359, -0.86087697744369507, 0.35509860515594482, 2.6260464191436768, 3.8483424186706543, 1.5825152397155762, 4.2391910552978516, 2.6459662914276123, -0.25593855977058411, 1.7287944555282593, 4.5613312721252441, 1.0913294553756714, 4.7600374221801758, 0.018310368061065674, 2.6842539310455322, 2.5925476551055908, -0.36784014105796814, 5.8093957901000977, 7.4950737953186035, 1.0221990346908569, -0.64657330513000488, 3.0734531879425049, 2.7515132427215576, 1.0285451412200928, 0.88141155242919922, -0.2777019739151001, 1.8026195764541626, 1.0071210861206055, 3.4082026481628418, 5.2622709274291992, 2.1116292476654053, 3.8631668090820312, 3.7362542152404785, 0.10310310125350952, 1.9383711814880371, 2.4676904678344727, 4.1938815116882324, 1.0996780395507812, 7.8197932243347168, -0.8828585147857666, -0.82614642381668091, 2.2035691738128662, -1.6589405536651611, -0.44426983594894409, -0.977447509765625, 6.5352683067321777, 4.3607001304626465, 3.6971061229705811, 4.2406244277954102, -5.2905654907226562, 4.0608062744140625, 2.7139370441436768, 2.4012060165405273, 3.2796201705932617, 0.15477393567562103, 1.5269042253494263, 2.6114706993103027, 4.1511001586914062, 4.9369974136352539, 4.9294519424438477, 6.4826226234436035, -3.6661720275878906, 4.1925315856933594, 3.866877555847168, 5.9887018203735352, 1.167600154876709, 2.4881608486175537, 3.1063148975372314, 3.4058437347412109, 6.1460418701171875, -0.32119917869567871, 1.7535049915313721, 2.4070286750793457, 4.17828369140625, 3.198211669921875, 0.73895025253295898, 0.77219939231872559, -0.91626787185668945, 5.5324506759643555, 1.8785402774810791, -0.21662598848342896, 4.8982415199279785, -2.1302454471588135, 0.48277151584625244, -0.95119351148605347, 1.5746992826461792, 0.60460919141769409, -0.30111879110336304, 2.6691303253173828, 1.0320008993148804, 4.0596709251403809, 3.1498928070068359, -1.5627412796020508, -1.3976303339004517, -4.0340414047241211, 6.4383659362792969, 3.4265565872192383, 2.8798799514770508, 1.2437700033187866, 1.8433507680892944, -0.65916723012924194, 3.4648952484130859, 1.1941128969192505, 7.1667976379394531, 0.53910249471664429, 0.13193196058273315, 4.1152858734130859, 1.2872498035430908, 0.31695771217346191, 2.2206525802612305, 1.0358597040176392, 5.1765913963317871, 4.4081292152404785, 5.9939799308776855, 1.634333610534668, 3.4281713962554932, 4.9465389251708984, 4.3155112266540527, -3.4709362983703613, -1.2115128040313721, 3.5225071907043457, 1.8861562013626099, };
const TfArray<1, int> tensor_dimension27 = { 1, { 204 } };
const ALIGN(16) float tensor_data28[1*3*3*6] = { 
  /* [0][0][][] */ 0.23199722170829773,-0.051999032497406006,-0.275949627161026,-0.23945719003677368,-0.033029302954673767,-0.078508637845516205, -0.40812540054321289,0.10918696969747543,0.70871669054031372,0.2049468606710434,-0.0091037508100271225,-0.075970545411109924, 0.26631233096122742,-0.048188474029302597,-0.39580437541007996,-0.10834722965955734,0.02290915884077549,-0.075765743851661682, 
  /* [0][1][][] */ -0.33086284995079041,-0.23817268013954163,-0.11327376961708069,0.037033099681138992,0.4310556948184967,-0.14587421715259552, -1.3088816404342651,-1.5182645320892334,0.7814146876335144,1.8677129745483398,-0.16777008771896362,1.200374960899353, 0.4752107560634613,-0.14534276723861694,-0.23768538236618042,-0.84300351142883301,-0.20685610175132751,-0.30785548686981201, 
  /* [0][2][][] */ 0.26816803216934204,0.29145902395248413,-0.058852609246969223,-0.12167553603649139,-0.065282508730888367,-0.11010904610157013, 0.66513526439666748,1.4969576597213745,-0.34320110082626343,-1.0032118558883667,0.0014585449825972319,-0.23495194315910339, -0.12833251059055328,0.1982322633266449,0.021966857835650444,0.38812780380249023,0.038613218814134598,-0.090535037219524384, 
};
const TfArray<4, int> tensor_dimension28 = { 4, { 1,3,3,6 } };
const ALIGN(16) float tensor_data29[1*3*3*12] = { 
  /* [0][0][][] */ -0.073312133550643921,0.31228122115135193,-0.22512739896774292,0.18287518620491028,-0.015253886580467224,0.1505734771490097,-0.16958132386207581,-0.25558510422706604,0.48751893639564514,0.36603757739067078,0.10590429604053497,-0.1962389349937439, -0.20339286327362061,0.34331005811691284,-0.292193204164505,0.34062576293945312,0.55296635627746582,0.19391068816184998,-0.21969626843929291,-0.30960524082183838,-0.58769845962524414,0.55979728698730469,0.28867462277412415,-0.34158036112785339, -0.14473561942577362,0.043245840817689896,-0.097676977515220642,0.16929967701435089,-0.64859801530838013,0.096781350672245026,-0.061879381537437439,-0.10759852081537247,0.044454827904701233,0.22328439354896545,0.23925267159938812,-0.13487331569194794, 
  /* [0][1][][] */ -0.097989693284034729,0.52020454406738281,-0.33196964859962463,0.31283631920814514,0.068320102989673615,0.24906793236732483,-0.20100186765193939,-0.31459382176399231,0.73432791233062744,0.61857593059539795,0.20815248787403107,-0.31334313750267029, -0.29366803169250488,0.52924275398254395,-0.44192606210708618,0.55481833219528198,0.85257250070571899,0.36556923389434814,-0.30855837464332581,-0.4197501540184021,-0.87384301424026489,1.08327317237854,0.4894346296787262,-0.52903199195861816, -0.21495047211647034,0.054103221744298935,-0.17597691714763641,0.30889433622360229,-0.99022847414016724,0.19768427312374115,-0.10308276116847992,-0.14021162688732147,0.072986096143722534,0.49257433414459229,0.42012172937393188,-0.24195931851863861, 
  /* [0][2][][] */ -0.027872556820511818,0.25161811709403992,-0.13692912459373474,0.15845584869384766,0.023814694955945015,0.14462721347808838,-0.072814524173736572,-0.059069376438856125,0.49978244304656982,0.37412151694297791,0.085511356592178345,-0.14642471075057983, -0.13257114589214325,0.2410379946231842,-0.20058567821979523,0.29582074284553528,0.53710395097732544,0.2482379823923111,-0.095250390470027924,-0.1306861937046051,-0.53707677125930786,0.61188507080078125,0.25673550367355347,-0.24875162541866302, -0.10449171811342239,0.029249878600239754,-0.064930014312267303,0.16547214984893799,-0.49963665008544922,0.15024794638156891,-0.038667753338813782,-0.013045521453022957,0.049448270350694656,0.43488228321075439,0.19906139373779297,-0.11029525846242905, 
};
const TfArray<4, int> tensor_dimension29 = { 4, { 1,3,3,12 } };
const ALIGN(16) float tensor_data30[1*3*3*25] = { 
  /* [0][0][][] */ -0.043049857020378113,-0.063276372849941254,0.38996392488479614,0.018399041146039963,-0.083326146006584167,-0.15245644748210907,-0.0075370674021542072,0.39881625771522522,0.14467841386795044,0.069758988916873932,0.40929606556892395,-0.17342822253704071,-0.090057067573070526,0.023148631677031517,-0.51694071292877197,0.025330176576972008,-0.40855449438095093,-0.69672620296478271,-0.19829948246479034,0.3052445650100708,0.10161187499761581,0.34139114618301392,0.0043985885567963123,-0.0047239772975444794,0.43045797944068909, -0.12399034947156906,0.32953408360481262,0.92064416408538818,-0.25207221508026123,-0.48843994736671448,-0.11130938678979874,-0.12749497592449188,-1.0028889179229736,-0.66054761409759521,-0.27475962042808533,1.2394349575042725,-0.0095066167414188385,-0.27897825837135315,0.13953210413455963,0.17783123254776001,-0.36565494537353516,-0.11955606937408447,0.14861166477203369,0.17485310137271881,-0.71293014287948608,-0.0044443416409194469,1.0003476142883301,-0.9079088568687439,-0.10770316421985626,-0.94423437118530273, 0.043199997395277023,-0.063680350780487061,0.30277654528617859,0.013845223002135754,0.064903005957603455,-0.28556957840919495,0.013401292264461517,0.35602229833602905,0.1479637622833252,0.13281534612178802,0.28684502840042114,-0.041615728288888931,-0.08593074232339859,-0.016765110194683075,-0.17659707367420197,0.060782499611377716,-0.29745399951934814,0.048450920730829239,-0.1779930591583252,0.19442296028137207,0.10371404886245728,0.18192507326602936,-0.088479220867156982,0.0086580123752355576,0.46420270204544067, 
  /* [0][1][][] */ 0.83218139410018921,0.41384240984916687,-0.66160941123962402,-0.59556281566619873,0.2463005930185318,-0.46648812294006348,0.010439082980155945,1.4745875597000122,-1.4933137893676758,0.080746762454509735,-0.97044146060943604,-0.47661557793617249,-0.70430362224578857,-0.35454449057579041,1.0796393156051636,-0.07317207008600235,-1.6967964172363281,-0.98593968152999878,0.55209177732467651,-0.72410494089126587,-0.028510488569736481,-0.37476536631584167,-0.44962972402572632,-0.23978890478610992,2.7295093536376953, 2.1145377159118652,-1.8338195085525513,-2.2832286357879639,3.2080788612365723,-1.3463234901428223,1.4370768070220947,1.0577399730682373,-2.579303503036499,5.4533510208129883,-1.5717273950576782,-1.7712812423706055,-0.14701245725154877,-0.039343845099210739,-0.79825049638748169,3.7296626567840576,-0.90647190809249878,2.4438478946685791,0.34826460480690002,1.9971179962158203,1.7126386165618896,-0.48213979601860046,0.099740408360958099,2.2956631183624268,-0.25578725337982178,-5.2220020294189453, 0.017128689214587212,0.18445827066898346,-0.54849457740783691,-1.0136901140213013,0.20731386542320251,-0.27709636092185974,-0.053928051143884659,1.3179391622543335,-1.6516627073287964,0.27045735716819763,-0.75304263830184937,-0.064898788928985596,-0.32118335366249084,-0.37090116739273071,1.0384209156036377,0.01772102527320385,0.68738764524459839,4.877316314377822e-06,0.21717724204063416,-0.45660364627838135,-0.13467325270175934,-0.36904841661453247,0.087825179100036621,-0.094555556774139404,2.7076404094696045, 
  /* [0][2][][] */ -0.093868523836135864,0.051485445350408554,0.3918738067150116,0.043183475732803345,-0.14618848264217377,-0.19219523668289185,-0.08478941023349762,0.73348301649093628,0.29173439741134644,0.087436579167842865,0.27793276309967041,-0.047780249267816544,0.074640840291976929,-0.17358452081680298,-0.4368346631526947,0.072031550109386444,1.9041436910629272,-0.47770091891288757,-0.31818091869354248,0.090097978711128235,0.11063997447490692,0.076067551970481873,-0.21825829148292542,0.02272334136068821,0.25830960273742676, -0.2670922577381134,0.040183916687965393,1.0484001636505127,-0.8311493992805481,-0.36549103260040283,0.32251167297363281,0.066324062645435333,-1.482088565826416,-1.0448054075241089,0.12004247307777405,0.96040850877761841,0.024100974202156067,-0.24294023215770721,-0.041580662131309509,0.33029317855834961,-0.17983593046665192,-2.2143063545227051,0.11558341234922409,-0.22504882514476776,-0.29203274846076965,-0.23368933796882629,0.47564929723739624,0.31714659929275513,-0.13110630214214325,-0.7639046311378479, 0.058464407920837402,-0.064851447939872742,0.28745180368423462,0.143268883228302,-0.0035831029526889324,-0.07271198183298111,-0.055747926235198975,0.51224398612976074,0.33136159181594849,0.10252723842859268,0.18716703355312347,0.002459260867908597,0.021306559443473816,-0.23460628092288971,-0.11653780192136765,0.096137024462223053,-0.40430277585983276,0.060777824372053146,-0.2508300244808197,0.0913228839635849,0.0001516865158919245,0.042334944009780884,-0.021064706146717072,-0.02476109005510807,0.31356200575828552, 
};
const TfArray<4, int> tensor_dimension30 = { 4, { 1,3,3,25 } };
const ALIGN(16) float tensor_data31[1*3*3*25] = { 
  /* [0][0][][] */ 0.31066173315048218,-0.19884593784809113,-0.25439375638961792,-0.31740602850914001,0.48080739378929138,0.15327140688896179,0.21522016823291779,-0.20403972268104553,-0.42247223854064941,0.22888319194316864,-0.33668458461761475,-0.34541663527488708,-0.2075391560792923,0.34899508953094482,-0.19346714019775391,-0.19132593274116516,0.19875742495059967,-0.24514815211296082,0.26610997319221497,0.25161191821098328,0.24474732577800751,0.25680461525917053,-0.16849756240844727,0.13640716671943665,-0.20806293189525604, 0.48797750473022461,-0.30935156345367432,-0.38329705595970154,-0.44365936517715454,0.64750933647155762,0.21535761654376984,0.29437613487243652,-0.35747525095939636,-0.566619873046875,0.36914536356925964,-0.46555298566818237,-0.56751817464828491,-0.40582358837127686,0.48180291056632996,-0.26133781671524048,-0.22772598266601562,0.26830902695655823,-0.2797996997833252,0.42274332046508789,0.33183461427688599,0.31661921739578247,0.34295424818992615,-0.2339983731508255,0.16918918490409851,-0.28136280179023743, 0.26391509175300598,-0.16571582853794098,-0.18666443228721619,-0.17882801592350006,0.31360089778900146,0.097047328948974609,0.13896483182907104,-0.22211216390132904,-0.2444869726896286,0.18958583474159241,-0.19843871891498566,-0.27755758166313171,-0.24930714070796967,0.21326328814029694,-0.14086854457855225,-0.13091276586055756,0.12054771184921265,-0.17637075483798981,0.18742401897907257,0.17293114960193634,0.15940752625465393,0.15318156778812408,-0.09649956226348877,0.072975613176822662,-0.12387748062610626, 
  /* [0][1][][] */ 0.42858484387397766,-0.26948437094688416,-0.3558594286441803,-0.43103986978530884,0.56432634592056274,0.18479259312152863,0.27085211873054504,-0.29414036870002747,-0.50898247957229614,0.30245864391326904,-0.4313490092754364,-0.46417906880378723,-0.27860322594642639,0.49472782015800476,-0.27132177352905273,-0.25412642955780029,0.29665622115135193,-0.32878035306930542,0.39559623599052429,0.35125172138214111,0.32786625623703003,0.3603394627571106,-0.2438468337059021,0.26749107241630554,-0.25608125329017639, 0.63598620891571045,-0.40769225358963013,-0.551738440990448,-0.59398424625396729,0.80903434753417969,0.27843928337097168,0.36767092347145081,-0.51546269655227661,-0.58128446340560913,0.44811666011810303,-0.60453999042510986,-0.7620471715927124,-0.52368253469467163,0.66729104518890381,-0.32615947723388672,-0.31204620003700256,0.38264411687850952,-0.43121764063835144,0.57890957593917847,0.46059975028038025,0.45726639032363892,0.48300749063491821,-0.3423173725605011,0.36072266101837158,-0.33319228887557983, 0.33530217409133911,-0.19903141260147095,-0.27175796031951904,-0.20695453882217407,0.41906315088272095,0.13297227025032043,0.18089227378368378,-0.30314528942108154,-0.3359968364238739,0.24831531941890717,-0.25987923145294189,-0.38832744956016541,-0.3274894654750824,0.32657289505004883,-0.15978476405143738,-0.14947544038295746,0.16970987617969513,-0.24639131128787994,0.27794227004051208,0.24184054136276245,0.20241595804691315,0.21887335181236267,-0.14222881197929382,0.1685066819190979,-0.14836113154888153, 
  /* [0][2][][] */ 0.21323272585868835,-0.099645055830478668,-0.15787185728549957,-0.19526144862174988,0.24600724875926971,0.076663613319396973,0.11779928952455521,-0.11494636535644531,-0.18748317658901215,0.13271966576576233,-0.19872069358825684,-0.1737811267375946,-0.081932231783866882,0.20487199723720551,-0.15786172449588776,-0.13712479174137115,0.17696201801300049,-0.18482775986194611,0.17855322360992432,0.12570382654666901,0.13239525258541107,0.15825110673904419,-0.13383834064006805,0.15333524346351624,-0.10349896550178528, 0.3457653820514679,-0.16621603071689606,-0.25072044134140015,-0.26740604639053345,0.37536239624023438,0.10523474961519241,0.17502766847610474,-0.2281893789768219,-0.24062733352184296,0.17822231352329254,-0.33456054329872131,-0.29943281412124634,-0.19982875883579254,0.31739062070846558,-0.20634862780570984,-0.18117950856685638,0.2220829576253891,-0.23144775629043579,0.26992172002792358,0.18341808021068573,0.20086841285228729,0.22514213621616364,-0.19197098910808563,0.22021572291851044,-0.14740172028541565, 0.16704297065734863,-0.075179219245910645,-0.13009627163410187,-0.083578214049339294,0.17255157232284546,0.056514579802751541,0.083812028169631958,-0.14826098084449768,-0.087566114962100983,0.11260104924440384,-0.15583249926567078,-0.14525064826011658,-0.12305238097906113,0.1656382828950882,-0.091066904366016388,-0.088866665959358215,0.11567702889442444,-0.093834482133388519,0.11468010395765305,0.10391468554735184,0.094501808285713196,0.10115724056959152,-0.096195213496685028,0.09141077846288681,-0.061558477580547333, 
};
const TfArray<4, int> tensor_dimension31 = { 4, { 1,3,3,25 } };
const ALIGN(16) float tensor_data32[1*3*3*51] = { 
  /* [0][0][][] */ -0.056730017066001892,-0.10598059743642807,0.01256891805678606,-0.0045197764411568642,-0.020280146971344948,-0.31595385074615479,0.023497654125094414,-0.2750663161277771,-0.024631598964333534,-0.034788236021995544,0.11260075867176056,0.065449580550193787,-0.017160126939415932,-0.15560048818588257,-0.13465131819248199,-0.017695588991045952,0.027337927371263504,0.0094744693487882614,-0.17572790384292603,0.095765583217144012,-0.0071169468574225903,0.012190703302621841,-0.33229607343673706,-0.38267198204994202,0.038003727793693542,-0.080436497926712036,0.46365800499916077,-0.063903406262397766,0.6162601113319397,0.31005671620368958,-0.31598582863807678,0.071317017078399658,-0.035811010748147964,-0.010877967812120914,-0.059780601412057877,-0.11295150220394135,-0.39030295610427856,-0.098783098161220551,0.062019690871238708,-0.070624358952045441,-0.16305254399776459,-0.43077602982521057,-0.11586832255125046,0.089366123080253601,-0.47049471735954285,0.037472035735845566,-0.077764794230461121,-0.018953772261738777,-0.53793787956237793,0.081697314977645874,0.00092812610091641545, 0.46249851584434509,0.45080003142356873,0.22336749732494354,-0.1299426406621933,-0.1152590736746788,-0.35606673359870911,0.19743858277797699,-0.74267083406448364,-0.11568006873130798,0.13544365763664246,0.078882098197937012,0.16376851499080658,-0.095282629132270813,0.089269272983074188,0.46142226457595825,-0.14046603441238403,0.092333480715751648,-0.11520382761955261,-0.47298687696456909,0.28436931967735291,0.27713939547538757,0.1766321063041687,-0.20770783722400665,-0.16568869352340698,-0.63781815767288208,-1.2509229183197021,2.8225750923156738,-0.13860401511192322,2.3099925518035889,1.1065679788589478,0.15218283236026764,-0.42299515008926392,-0.23797017335891724,-0.53315025568008423,-0.022576142102479935,-0.16643902659416199,0.376910001039505,0.37723523378372192,0.15670588612556458,0.15194523334503174,0.18267011642456055,-1.5818197727203369,0.15779979526996613,0.17430125176906586,-1.1633092164993286,-0.56198149919509888,-0.34380915760993958,-0.12950408458709717,1.1651442050933838,0.49808418750762939,-0.39725586771965027, -0.2670886218547821,-0.20494648814201355,-0.20485423505306244,0.0017413214081898332,0.0076266620308160782,-0.11718664318323135,0.028037160634994507,-0.13154551386833191,0.061781629920005798,-0.041121691465377808,0.031134635210037231,-0.086892805993556976,0.044075667858123779,-0.22070977091789246,-0.32828637957572937,0.053672581911087036,-0.041601512581110001,0.0059302207082509995,-0.0022403022740036249,-0.077651038765907288,-0.060285821557044983,-0.054917071014642715,-0.28127822279930115,-0.19056695699691772,0.25501710176467896,0.22275556623935699,-0.11584495007991791,-0.0086320238187909126,0.18345656991004944,-0.013588408939540386,-0.42925542593002319,0.085671640932559967,0.034898705780506134,0.1342606246471405,-0.11171310395002365,-0.0054903049021959305,-0.0097265094518661499,-0.16723726689815521,-0.054258894175291061,-0.12188749760389328,-0.19024737179279327,-0.018198076635599136,-0.17272293567657471,0.061825364828109741,-0.19447174668312073,0.22812457382678986,0.03074030764400959,0.032242607325315475,-0.74228549003601074,-0.58646976947784424,0.42616385221481323, 
  /* [0][1][][] */ 0.37198400497436523,-0.15914326906204224,0.09904789924621582,-0.2931765615940094,-0.80697208642959595,-0.16147887706756592,0.064518466591835022,-0.53936541080474854,-0.51096802949905396,0.18719290196895599,0.35628661513328552,0.26240292191505432,-0.24373109638690948,-0.3048783540725708,-0.82827997207641602,0.60705363750457764,0.2341664582490921,0.22680602967739105,-0.53289186954498291,0.1725601851940155,0.10954295843839645,0.16902472078800201,-0.50779628753662109,-0.38262224197387695,-0.4225904643535614,-0.43510735034942627,-0.38164228200912476,-0.50447863340377808,-0.58161753416061401,-1.1229112148284912,0.070695251226425171,-0.42243564128875732,-0.22272495925426483,-0.24012063443660736,0.011652407236397266,-0.73469668626785278,-1.6934666633605957,0.31353956460952759,0.35135176777839661,0.36872720718383789,-0.069423936307430267,0.29355409741401672,0.39086052775382996,0.11434334516525269,0.55499100685119629,-0.19405171275138855,0.13764981925487518,-0.33950090408325195,-0.62890368700027466,0.72681379318237305,-0.085991397500038147, 0.94665330648422241,1.8349423408508301,1.2157232761383057,-1.8611003160476685,-0.32212099432945251,0.23695157468318939,-1.4423000812530518,2.3496882915496826,-1.0013556480407715,0.94045484066009521,0.65220350027084351,0.80901104211807251,-0.67619669437408447,3.0329217910766602,-1.8066369295120239,1.2203856706619263,0.94558900594711304,1.6014553308486938,-0.92478537559509277,1.1218347549438477,0.86228913068771362,0.63463371992111206,3.1446521282196045,-1.0617479085922241,-0.62312871217727661,-0.60165113210678101,-2.7126259803771973,0.033900007605552673,-1.614886999130249,-1.9763838052749634,2.2344937324523926,2.3148207664489746,-0.57178771495819092,-1.0998436212539673,1.6333881616592407,-2.0009069442749023,1.5354975461959839,0.68970400094985962,0.60419386625289917,0.76121574640274048,1.2802997827529907,1.0487723350524902,1.70041823387146,0.66748803853988647,1.1803220510482788,-1.3434838056564331,-1.2245572805404663,-0.64328199625015259,1.9807730913162231,0.58293366432189941,-2.8978757858276367, -0.026961304247379303,-0.65739279985427856,-0.38180813193321228,0.20709989964962006,-0.64701992273330688,-0.19243486225605011,0.39208659529685974,-1.2925658226013184,0.17043271660804749,-0.17793108522891998,0.081311307847499847,-0.099443458020687103,-0.023913633078336716,-0.99804568290710449,-0.17323729395866394,0.17101788520812988,-0.16457833349704742,-0.27162432670593262,-0.24386700987815857,-0.021781317889690399,-0.13932992517948151,0.018568513914942741,-1.2478791475296021,0.11167775839567184,-0.20403417944908142,-0.38874608278274536,0.28847509622573853,-0.50253969430923462,-0.14652606844902039,-0.42932876944541931,-1.1221715211868286,-0.95805931091308594,-0.059778410941362381,0.0214557945728302,-0.53682065010070801,-0.0086314612999558449,0.24433943629264832,-0.094019986689090729,0.06702587753534317,0.03840348869562149,-0.36486786603927612,-0.036879364401102066,-0.040707848966121674,-0.043108195066452026,0.21532280743122101,0.20373938977718353,0.48205351829528809,-0.04919172078371048,-0.84951967000961304,-1.2346748113632202,0.95671379566192627, 
  /* [0][2][][] */ -0.37083274126052856,-0.10379000008106232,-0.17020778357982635,0.15842638909816742,0.07122388482093811,-0.080789335072040558,0.045006144791841507,-0.15791571140289307,0.058687686920166016,-0.058941740542650223,-0.089970596134662628,-0.15049156546592712,0.037100546061992645,-0.18887348473072052,0.69500261545181274,-0.54058855772018433,-0.092990092933177948,-0.034469883888959885,0.13986983895301819,0.041187357157468796,-0.037983700633049011,-0.056209001690149307,-0.028789069503545761,-0.12520556151866913,0.13941502571105957,0.45357802510261536,-0.037098802626132965,-0.023405542597174644,-0.13696682453155518,0.58058619499206543,-0.49467974901199341,-0.097785234451293945,0.10318901389837265,0.053294192999601364,-0.084153994917869568,0.069030560553073883,0.03790457546710968,-0.099237322807312012,-0.10428135842084885,-0.15613432228565216,-0.13374708592891693,0.096465528011322021,-0.22504675388336182,0.0085613271221518517,0.017861772328615189,0.17398576438426971,0.014798114076256752,0.05785418301820755,-0.12859822809696198,-0.12329709529876709,0.39974397420883179, -0.94121772050857544,-0.32279610633850098,-0.41838085651397705,0.32886853814125061,-0.1086626723408699,-0.33518165349960327,0.39909222722053528,-1.3301049470901489,0.22191756963729858,-0.20368088781833649,-0.14921407401561737,-0.27210217714309692,0.12544308602809906,-1.123163104057312,2.0487537384033203,-1.3126926422119141,-0.19023054838180542,-0.63319718837738037,-0.15261271595954895,-0.20286794006824493,-0.19926527142524719,-0.17596587538719177,-1.7368056774139404,0.13458608090877533,0.038730043917894363,1.8592377901077271,-0.10331528633832932,-0.17557172477245331,-0.60182744264602661,1.301525354385376,-1.3952374458312988,-0.58779150247573853,0.050264749675989151,0.23325105011463165,-0.59230595827102661,0.28643020987510681,-0.15105806291103363,-0.25148060917854309,-0.11078280210494995,-0.13201385736465454,-0.24304428696632385,0.56068843603134155,-0.43452256917953491,-0.080504029989242554,-0.1930806040763855,0.14949256181716919,0.53585588932037354,0.16867044568061829,0.3387472927570343,0.11585279554128647,1.4689085483551025, -0.027785809710621834,0.031854867935180664,-0.01887933537364006,0.061783555895090103,0.10577829927206039,0.02763882651925087,-0.015852073207497597,0.11404316872358322,0.00064004462910816073,0.0035309221129864454,-0.012794957496225834,-0.068714149296283722,0.010170528665184975,0.15901270508766174,0.025039311498403549,-0.13618066906929016,-0.055023860186338425,0.11849605292081833,0.17062161862850189,0.0056059393100440502,-0.00044864241499453783,-0.056284908205270767,0.34433865547180176,-0.17894206941127777,0.10466469824314117,0.14588271081447601,-0.13930806517601013,0.011108900420367718,-0.080262012779712677,0.12764476239681244,0.035632878541946411,-0.073949448764324188,0.091637015342712402,0.0080643491819500923,0.10198657214641571,-0.044260010123252869,0.083533413708209991,0.021614119410514832,-0.10866515338420868,-0.069956086575984955,-0.069071166217327118,0.034038860350847244,-0.11348357051610947,0.019709544256329536,0.091647721827030182,0.11555837839841843,-0.10091880708932877,0.01590881310403347,-0.2532554566860199,-0.041556365787982941,-0.086003616452217102, 
};
const TfArray<4, int> tensor_dimension32 = { 4, { 1,3,3,51 } };
const ALIGN(16) float tensor_data33[1*3*3*51] = { 
  /* [0][0][][] */ -0.33100852370262146,-0.24529863893985748,-0.21784067153930664,0.19135326147079468,-0.20119033753871918,-0.1827191561460495,-0.1787598729133606,-0.24258428812026978,0.25164052844047546,0.24367044866085052,0.2055429220199585,0.30014520883560181,0.22776925563812256,0.25271612405776978,-0.24400773644447327,0.23803804814815521,-0.21023006737232208,-0.27652162313461304,-0.34699532389640808,0.20838375389575958,0.20481272041797638,0.25268933176994324,0.15671542286872864,-0.19884029030799866,0.19926987588405609,0.22118495404720306,-0.25346830487251282,0.1517922431230545,0.27060270309448242,0.19320587813854218,0.095550492405891418,-0.14229865372180939,-0.18322835862636566,0.22414250671863556,0.50565546751022339,0.22784574329853058,0.16680407524108887,-0.37397792935371399,-0.18012315034866333,0.77323329448699951,0.23076991736888885,-0.12668630480766296,0.24028922617435455,0.14522074162960052,0.16577853262424469,-0.20897503197193146,-0.90023630857467651,-0.72432553768157959,-0.31552368402481079,-0.19140960276126862,0.19473899900913239, -0.45629400014877319,-0.32216012477874756,-0.2722553014755249,0.22790534794330597,-0.22794866561889648,-0.25679925084114075,-0.22838020324707031,-0.31821390986442566,0.32127386331558228,0.27369838953018188,0.2504604160785675,0.41573098301887512,0.30157524347305298,0.30765977501869202,-0.30722248554229736,0.31548058986663818,-0.26386427879333496,-0.3825230598449707,-0.49849697947502136,0.27996549010276794,0.28042206168174744,0.32194182276725769,0.1766946017742157,-0.25571331381797791,0.24280712008476257,0.27989697456359863,-0.30444955825805664,0.19643552601337433,0.34300106763839722,0.23009489476680756,0.93840152025222778,-0.20398406684398651,-0.22480688989162445,0.28608310222625732,0.57087910175323486,0.26138016581535339,0.23282720148563385,-0.50082278251647949,-0.24556776881217957,0.80498838424682617,0.31817999482154846,-0.16783620417118073,0.30449408292770386,0.20670309662818909,0.22451074421405792,-0.26244780421257019,-1.0401077270507812,0.14886172115802765,-0.35203522443771362,-0.23994565010070801,0.26504379510879517, -0.23108592629432678,-0.14822302758693695,-0.13695761561393738,0.096995972096920013,-0.11832409352064133,-0.14345484972000122,-0.10618880391120911,-0.12121973931789398,0.17665357887744904,0.1105983704328537,0.13810074329376221,0.16723842918872833,0.14484216272830963,0.16380372643470764,-0.14728282392024994,0.11137927323579788,-0.11131083965301514,-0.16182234883308411,-0.18429920077323914,0.14485560357570648,0.16748352348804474,0.16055141389369965,0.066894464194774628,-0.10646547377109528,0.11618764698505402,0.12759847939014435,-0.1589457243680954,0.10915172100067139,0.15968187153339386,0.10015083849430084,-1.0848590135574341,-0.068308934569358826,-0.12457656860351562,0.15245817601680756,0.27861282229423523,0.089259430766105652,0.12286993116140366,-0.20345334708690643,-0.12036864459514618,0.25809496641159058,0.13599684834480286,-0.085221476852893829,0.13302032649517059,0.11026573926210403,0.12497950345277786,-0.14675521850585938,-0.69814187288284302,0.61424720287322998,-0.15911276638507843,-0.098342441022396088,0.15033797919750214, 
  /* [0][1][][] */ -0.45077520608901978,-0.37040671706199646,-0.26619765162467957,0.25602626800537109,-0.26208207011222839,-0.2742302417755127,-0.23632220923900604,-0.2909717857837677,0.3356778621673584,0.29224148392677307,0.26889923214912415,0.46085846424102783,0.31289255619049072,0.33526104688644409,-0.31019192934036255,0.33928391337394714,-0.32269269227981567,-0.36870688199996948,-0.38239073753356934,0.28395316004753113,0.29793781042098999,0.30676493048667908,0.26035210490226746,-0.290589839220047,0.25579833984375,0.26192444562911987,-0.32008963823318481,0.21708180010318756,0.35214912891387939,0.27081748843193054,0.10406318306922913,-0.23807661235332489,-0.23617440462112427,0.31444409489631653,0.55365997552871704,0.28657260537147522,0.23062458634376526,-0.51355171203613281,-0.26050767302513123,0.89044564962387085,0.31048688292503357,-0.22270184755325317,0.30781012773513794,0.24136121571063995,0.2247830331325531,-0.2986171543598175,0.25072008371353149,-1.005945086479187,-0.43062230944633484,-0.24650503695011139,0.24584953486919403, -0.57388776540756226,-0.49919337034225464,-0.32448247075080872,0.33797094225883484,-0.32656890153884888,-0.37784498929977417,-0.32171079516410828,-0.35202327370643616,0.41735205054283142,0.33557587862014771,0.3327045738697052,0.6159827709197998,0.41977390646934509,0.40673938393592834,-0.34974867105484009,0.41402804851531982,-0.39392796158790588,-0.49246734380722046,-0.54945933818817139,0.36888259649276733,0.41713348031044006,0.42035758495330811,0.30988246202468872,-0.38649469614028931,0.31844174861907959,0.35119706392288208,-0.4258371889591217,0.29109171032905579,0.45085126161575317,0.33317199349403381,1.2356588840484619,-0.30484610795974731,-0.29575172066688538,0.4329971969127655,0.63494300842285156,0.33136624097824097,0.32730835676193237,-0.74330955743789673,-0.33234629034996033,1.0241001844406128,0.40555742383003235,-0.25452062487602234,0.38498932123184204,0.34414151310920715,0.3239554762840271,-0.39095130562782288,0.4101642370223999,0.23478205502033234,-0.57073283195495605,-0.33714699745178223,0.35054486989974976, -0.27617430686950684,-0.25259697437286377,-0.17066620290279388,0.11729850620031357,-0.16571103036403656,-0.18325167894363403,-0.14011006057262421,-0.15942290425300598,0.24921292066574097,0.15901105105876923,0.18691101670265198,0.29109659790992737,0.1905229389667511,0.21027308702468872,-0.18645013868808746,0.20066703855991364,-0.19289132952690125,-0.23782283067703247,-0.26530483365058899,0.19449099898338318,0.21431887149810791,0.23042216897010803,0.13220719993114471,-0.17713132500648499,0.14340895414352417,0.17658214271068573,-0.22209122776985168,0.15903526544570923,0.20462179183959961,0.14834986627101898,-1.3021705150604248,-0.13551409542560577,-0.17121097445487976,0.21859578788280487,0.41361141204833984,0.13676843047142029,0.14712844789028168,-0.31545856595039368,-0.14682255685329437,0.31710442900657654,0.18801265954971313,-0.16813796758651733,0.16426411271095276,0.17976713180541992,0.19389937818050385,-0.20652180910110474,0.23711477220058441,0.93879157304763794,-0.18419896066188812,-0.1609436571598053,0.19516243040561676, 
  /* [0][2][][] */ -0.23453459143638611,-0.18816682696342468,-0.11428029835224152,0.10520786792039871,-0.15176908671855927,-0.12649154663085938,-0.080247767269611359,-0.091552257537841797,0.15766365826129913,0.12486430257558823,0.13031896948814392,0.2070639431476593,0.14269036054611206,0.18204043805599213,-0.14160844683647156,0.20345167815685272,-0.15159867703914642,-0.15779043734073639,-0.11318892240524292,0.14183999598026276,0.14486697316169739,0.1179964542388916,0.13480952382087708,-0.11997681111097336,0.10412935167551041,0.092580303549766541,-0.14777091145515442,0.10474509000778198,0.14505387842655182,0.13064384460449219,-0.021793192252516747,-0.12190449237823486,-0.10475458204746246,0.13545183837413788,0.22056347131729126,0.088336922228336334,0.11823312193155289,-0.18944987654685974,-0.11593745648860931,0.10227931290864944,0.10348721593618393,-0.12990525364875793,0.14057569205760956,0.12663359940052032,0.10923650115728378,-0.13576923310756683,0.47774884104728699,-0.4973234236240387,-0.14108636975288391,-0.095188505947589874,0.12596680223941803, -0.24280950427055359,-0.26583421230316162,-0.13299380242824554,0.15109197795391083,-0.20653925836086273,-0.1759752631187439,-0.13653494417667389,-0.10864191502332687,0.23471812903881073,0.13584677875041962,0.17001287639141083,0.2810574471950531,0.17467208206653595,0.22856543958187103,-0.18908514082431793,0.22708375751972198,-0.19590605795383453,-0.21742184460163116,-0.1659415066242218,0.16439734399318695,0.2061014324426651,0.203659787774086,0.15752007067203522,-0.17843297123908997,0.13640236854553223,0.14295792579650879,-0.22898164391517639,0.13320322334766388,0.18157680332660675,0.17845854163169861,0.17607372999191284,-0.14072488248348236,-0.13653296232223511,0.20896746218204498,0.28483724594116211,0.10320858657360077,0.1493612676858902,-0.30809289216995239,-0.16945083439350128,-0.083229757845401764,0.13984863460063934,-0.1288415938615799,0.16845126450061798,0.19401594996452332,0.16746675968170166,-0.19742166996002197,0.64873826503753662,0.079923026263713837,-0.23410555720329285,-0.17555585503578186,0.17310924828052521, -0.14289279282093048,-0.12051299959421158,-0.085980460047721863,0.057208012789487839,-0.098085254430770874,-0.087191447615623474,-0.048183422535657883,-0.041268438100814819,0.15722361207008362,0.085263714194297791,0.083655409514904022,0.12059605866670609,0.074272699654102325,0.13249064981937408,-0.12444174289703369,0.13869819045066833,-0.089677304029464722,-0.10184523463249207,-0.076652340590953827,0.074193321168422699,0.13981381058692932,0.13099494576454163,0.077860243618488312,-0.063339121639728546,0.065076738595962524,0.059401553124189377,-0.11348877847194672,0.085269570350646973,0.095127321779727936,0.092508703470230103,-0.7091020941734314,-0.065985932946205139,-0.084097698330879211,0.12437909841537476,0.18201357126235962,0.050169855356216431,0.096852272748947144,-0.15007564425468445,-0.084036402404308319,-0.33676740527153015,0.050059691071510315,-0.11279606819152832,0.074148431420326233,0.10480829328298569,0.094964616000652313,-0.099319547414779663,0.41442900896072388,0.48035374283790588,-0.035289965569972992,-0.069419711828231812,0.10717442631721497, 
};
const TfArray<4, int> tensor_dimension33 = { 4, { 1,3,3,51 } };
const ALIGN(16) float tensor_data34[1*3*3*102] = { 
  /* [0][0][][] */ -0.125790074467659,-0.030421696603298187,0.035447757691144943,-0.50795483589172363,0.00861357431858778,0.034305926412343979,-0.05882510170340538,-0.19316038489341736,-0.12370895594358444,-0.026949392631649971,0.11559974402189255,-0.089285045862197876,-0.061354238539934158,0.010934757068753242,-0.14754655957221985,-0.079366959631443024,0.077517427504062653,0.041690278798341751,-0.066285468637943268,-0.02146349661052227,-0.095549255609512329,-0.068494603037834167,-0.16543577611446381,0.069989860057830811,-0.0065521481446921825,-0.13234427571296692,0.083669103682041168,-0.013267602771520615,0.22104489803314209,0.064119406044483185,0.27857497334480286,0.088963203132152557,0.015547960065305233,0.11677701771259308,0.29351624846458435,0.066620968282222748,-0.069668442010879517,-0.036850757896900177,0.10096219927072525,-0.19218365848064423,0.12342973798513412,0.12094587832689285,-0.13768228888511658,-0.016348591074347496,-0.10329953581094742,0.3897184431552887,-0.01904001273214817,-0.10302489250898361,-0.095345728099346161,0.070680946111679077,0.0017103515565395355,0.058833055198192596,-0.033888671547174454,-0.12346510589122772,-0.040730129927396774,-0.045536957681179047,-0.011934924870729446,-0.14903447031974792,-0.046184103935956955,-0.056471593677997589,0.0067516015842556953,-0.11190124601125717,0.037889380007982254,-0.10460527986288071,0.1538832038640976,-0.11588887125253677,-0.048293251544237137,0.028304625302553177,-0.15979109704494476,-0.37904217839241028,-0.18491098284721375,-0.070040859282016754,-0.064096599817276001,0.039061285555362701,-0.023477395996451378,0.099059179425239563,-0.07775009423494339,-0.099264204502105713,0.013014372438192368,0.024421006441116333,-0.071977332234382629,-0.089902311563491821,0.010003913193941116,0.070436052978038788,-0.11501558125019073,0.16343612968921661,0.11594350636005402,-0.071084655821323395,-0.0094037717208266258,-0.050533100962638855,-0.087026186287403107,-0.32152342796325684,-0.011753265745937824,0.099910654127597809,0.018420673906803131,0.090613342821598053,-0.16986705362796783,-0.021675750613212585,-0.16119454801082611,0.095940783619880676,-0.056095127016305923,-0.06607712060213089, -0.00094092747895047069,-1.1901414394378662,-0.04384203627705574,-0.14881971478462219,-0.16449213027954102,0.4697011411190033,0.62064170837402344,0.33158606290817261,-0.24015486240386963,-0.0060334019362926483,1.8586956262588501,0.022689457982778549,-0.33265295624732971,-1.7838218212127686,0.4391975998878479,-0.12398324906826019,-1.204972505569458,-0.5329129695892334,-0.96120697259902954,-0.17120122909545898,0.094286791980266571,-0.012277314439415932,0.045210685580968857,-0.074619017541408539,0.16728848218917847,-0.20716011524200439,-0.21429318189620972,-0.10853247344493866,-1.2297114133834839,-0.28408277034759521,-0.13187669217586517,-0.042064953595399857,-0.95998334884643555,-0.38886618614196777,-0.63638335466384888,-0.13551719486713409,0.050621051341295242,-0.33458775281906128,-0.060985803604125977,0.10964442044496536,0.26896610856056213,-0.038247767835855484,0.15227578580379486,-0.11345290392637253,-0.31769156455993652,0.16947460174560547,0.27571123838424683,0.51238787174224854,-0.5185706615447998,-0.17567268013954163,-0.14327052235603333,-0.46404477953910828,-1.218050479888916,-0.14178182184696198,-0.046818342059850693,-0.21732823550701141,-0.064914487302303314,-0.32362595200538635,-0.14371147751808167,-0.14683358371257782,-0.40340715646743774,-0.02510344609618187,-0.53991931676864624,0.41404232382774353,0.2171933650970459,-0.059060439467430115,0.11650408804416656,-0.41183978319168091,-0.18978734314441681,-1.2214008569717407,0.088343597948551178,-0.36787477135658264,0.083307698369026184,-0.14954361319541931,-0.40358841419219971,-0.097616598010063171,-1.0721081495285034,0.2197498083114624,-0.42946928739547729,-0.076214514672756195,-0.31349301338195801,-0.18977279961109161,-0.15127736330032349,-0.67993175983428955,0.32549616694450378,-0.24503125250339508,-0.4653090238571167,-0.090766966342926025,2.2085316181182861,0.40550431609153748,1.9770605564117432,1.001650333404541,-0.18562091886997223,-0.26593378186225891,-0.24157732725143433,-0.60924756526947021,0.24179527163505554,-0.012285272590816021,-0.78399175405502319,-0.69771218299865723,0.013241058215498924,-0.079823210835456848, -0.12496954947710037,-0.11317073553800583,-0.026581685990095139,-0.59843772649765015,-0.026337629184126854,0.058167736977338791,0.002118642907589674,-0.12150391191244125,-0.10785140842199326,-0.035256214439868927,0.16191685199737549,-0.071656681597232819,-0.11542137712240219,-0.15392109751701355,-0.17329515516757965,0.16373150050640106,-0.1189916580915451,-0.052168719470500946,-0.44248232245445251,-0.083440333604812622,-0.10452623665332794,-0.03982032835483551,-0.13756109774112701,-0.13432498276233673,0.011452723294496536,-0.10051789134740829,0.052285853773355484,0.064051687717437744,-0.098757252097129822,0.07888852059841156,0.23100011050701141,0.078590109944343567,-0.03831186518073082,0.069660678505897522,0.47422173619270325,0.08282829076051712,-0.069505892693996429,-0.07697015255689621,-0.025775887072086334,-0.028560636565089226,0.12511679530143738,-0.094921819865703583,-0.15923060476779938,-0.036892298609018326,-0.19624537229537964,0.085592150688171387,0.0096438163891434669,-0.023000802844762802,-0.14793635904788971,0.073402807116508484,-0.042636331170797348,-0.016388032585382462,-0.032922279089689255,-0.11078033596277237,-0.056851055473089218,0.003911326639354229,0.086710266768932343,-0.11923854798078537,-0.015424733981490135,-0.10245578736066818,-0.0077798487618565559,0.0067714918404817581,-0.11431435495615005,-0.11324850469827652,0.074800312519073486,-0.057330574840307236,-0.062216687947511673,-0.069600008428096771,-0.11381290107965469,-0.39666059613227844,0.034302093088626862,-0.05031922459602356,-0.099148191511631012,-0.01462846715003252,-0.096798516809940338,0.069920651614665985,-0.20103423297405243,-0.11212705820798874,0.0049748620949685574,0.13819365203380585,-0.071554273366928101,-0.15247906744480133,-0.036875899881124496,-0.10208415240049362,-0.080749735236167908,-0.011493626050651073,0.16419865190982819,0.08754875510931015,0.17910920083522797,-0.50269991159439087,-0.016675213351845741,-0.30025649070739746,-0.020201319828629494,0.070927530527114868,-0.014159130863845348,0.056888405233621597,-0.074095211923122406,-0.028111489489674568,-0.23868554830551147,0.025593984872102737,-0.060036282986402512,-0.086562886834144592, 
  /* [0][1][][] */ -0.064608961343765259,-0.00094557972624897957,-0.055336080491542816,0.32334035634994507,-0.29004088044166565,0.17034795880317688,0.35495790839195251,-0.31404465436935425,-0.25487717986106873,-0.043514106422662735,-0.22551959753036499,-0.072582997381687164,-0.36505305767059326,0.10239550471305847,-0.13802377879619598,1.7820247411727905,-0.21354122459888458,-0.71074515581130981,-0.72135937213897705,-0.17400185763835907,0.031109297648072243,-0.12421987950801849,-0.10496895760297775,-1.6636906862258911,0.024389022961258888,-0.090834848582744598,0.13299137353897095,-0.29070311784744263,-0.48486065864562988,-0.22877691686153412,0.019160669296979904,0.095818281173706055,-0.32639431953430176,-0.27651157975196838,-0.85027545690536499,-0.40047898888587952,-1.0929521322250366,-0.12539573013782501,1.3049303293228149,0.83056181669235229,0.412069171667099,-2.1231012344360352,-0.051101092249155045,-1.1333900690078735,-0.19229117035865784,-0.058920808136463165,0.5987362265586853,0.048636328428983688,-0.41228958964347839,-0.17327439785003662,-0.077435910701751709,-0.38071173429489136,0.78331989049911499,-0.13943858444690704,-0.13134013116359711,-0.079136572778224945,1.65240478515625,0.71671628952026367,-0.26750773191452026,-0.1254623681306839,-0.17692874372005463,-0.21879197657108307,-0.40604257583618164,-0.25901272892951965,-0.82494145631790161,-0.077692039310932159,-0.0047868834808468819,-0.25642946362495422,-0.37449410557746887,-0.41072750091552734,-1.3301374912261963,-0.25058090686798096,-1.5748918056488037,-0.11340579390525818,-0.4176810085773468,0.15275514125823975,0.16362817585468292,0.036103051155805588,-0.23752127587795258,-0.099036000669002533,-0.22557911276817322,-0.25347402691841125,-0.17021816968917847,-0.43376702070236206,0.21020959317684174,1.3877023458480835,0.72817444801330566,1.5547847747802734,-0.10367451608181,-0.010899122804403305,-0.177406907081604,0.52320092916488647,-0.075531952083110809,-0.20263589918613434,-0.83524984121322632,-0.06715189665555954,1.4583495855331421,-0.2786785364151001,-0.43215048313140869,-0.68668174743652344,-0.27327683568000793,-0.3563198447227478, 0.8276258111000061,0.83753466606140137,-1.4304025173187256,0.85946989059448242,-0.20878538489341736,0.030684296041727066,-0.25322860479354858,-0.48074072599411011,0.1674221009016037,1.1228516101837158,-0.668129563331604,1.12038254737854,1.8948738574981689,1.0492194890975952,1.3124463558197021,-0.048495709896087646,0.89893311262130737,2.1650652885437012,1.1919078826904297,-0.14330370724201202,0.78633981943130493,1.0287247896194458,0.88720327615737915,1.2567116022109985,0.70499700307846069,-1.207249641418457,0.6168595552444458,-1.1733702421188354,1.529956579208374,-0.6602204442024231,0.30003568530082703,-1.1677592992782593,1.4734805822372437,-0.53907489776611328,-2.3042676448822021,-1.7385547161102295,0.67723262310028076,1.3376989364624023,-0.063391141593456268,0.61564123630523682,-2.205634593963623,1.7312414646148682,1.3976399898529053,0.39404729008674622,0.97933977842330933,-0.51120579242706299,-2.1581251621246338,0.47484657168388367,1.8500699996948242,-0.41257688403129578,0.75040519237518311,-0.47312268614768982,-1.3592519760131836,-0.11148346960544586,0.84718120098114014,-1.1325809955596924,-0.11135370284318924,1.0254698991775513,-1.2864290475845337,0.91863745450973511,1.1463718414306641,-1.7376290559768677,1.4012025594711304,1.4228484630584717,-3.1730759143829346,-0.94152158498764038,0.87770479917526245,1.5827180147171021,0.20836634933948517,1.2162058353424072,1.0017910003662109,0.048566326498985291,0.60150963068008423,0.98644566535949707,1.9284290075302124,-2.0514745712280273,0.30336648225784302,0.70090305805206299,1.4883558750152588,-1.9446827173233032,0.18643946945667267,1.649715781211853,1.2389019727706909,1.2685102224349976,0.34455814957618713,0.10705257207155228,-1.3850675821304321,0.2095896303653717,-1.3047492504119873,1.3481985330581665,-0.26317843794822693,-0.069294370710849762,-0.74639111757278442,-0.58249038457870483,-0.020271115005016327,-1.2313711643218994,-0.9318663477897644,1.4424020051956177,0.90388041734695435,2.2871823310852051,-0.69334065914154053,1.6634365320205688, -0.064782172441482544,0.059310056269168854,0.03650299459695816,0.29099491238594055,-0.24804365634918213,0.084369279444217682,0.21670469641685486,-0.30371946096420288,-0.17683118581771851,-0.018027275800704956,-0.22726990282535553,-0.087501689791679382,-0.18775294721126556,0.11951664835214615,-0.040123388171195984,-1.7295018434524536,-0.0054625747725367546,-0.33767396211624146,0.099829494953155518,-0.13337351381778717,0.048583164811134338,-0.24907137453556061,-0.099621929228305817,0.5127863883972168,0.0012138104066252708,-0.18735794723033905,0.070806063711643219,-0.33031037449836731,-0.13431008160114288,-0.25921392440795898,-0.024974904954433441,0.10275576263666153,-0.18125714361667633,-0.20431648194789886,-0.74318164587020874,-0.45577684044837952,0.5307433009147644,-0.15248069167137146,-1.1799054145812988,-1.4146579504013062,0.31336766481399536,0.41510030627250671,-0.09473150223493576,0.73331493139266968,0.048587974160909653,0.46345984935760498,0.62065094709396362,0.02887251041829586,-0.24396882951259613,-0.090368397533893585,-0.01725240983068943,-0.35799068212509155,0.73779308795928955,-0.0080303875729441643,-0.05862007662653923,-0.053245943039655685,-1.5552488565444946,0.46216762065887451,-0.16910465061664581,-0.060941636562347412,-0.07480679452419281,-0.057936247438192368,-0.11246199160814285,-0.28120329976081848,-0.4273107647895813,-0.02340158075094223,0.087838552892208099,-0.21083188056945801,-0.31827664375305176,-0.59306663274765015,0.33897769451141357,-0.14048708975315094,0.97495996952056885,-0.057190466672182083,-0.41229519248008728,0.060133166611194611,0.16585914790630341,-0.034969881176948547,-0.049633357673883438,0.010840424336493015,-0.22746966779232025,-0.26059889793395996,-0.056630950421094894,-0.059299618005752563,0.20561257004737854,-1.4461917877197266,0.70473802089691162,-1.7367836236953735,-0.19301173090934753,-1.3503264188766479,-0.18222454190254211,0.68112039566040039,-0.096980027854442596,-0.17842213809490204,-0.53303921222686768,-0.057650543749332428,1.2582707405090332,-0.22244192659854889,-0.52110356092453003,-0.81568193435668945,-0.26326444745063782,-0.33784288167953491, 
